digraph Tree {
node [shape=box] ;
0 [label="col_76 <= 0.5\ngini = 0.649\nsamples = 14660\nvalue = [7995, 158, 2746, 354, 1557, 141, 888, 821]"] ;
1 [label="hour <= 13.5\ngini = 0.765\nsamples = 7057\nvalue = [410, 158, 2746, 354, 1543, 141, 888, 817]"] ;
0 -> 1 [labeldistance=2.5, labelangle=45, headlabel="True"] ;
2 [label="hour <= 3.5\ngini = 0.777\nsamples = 4312\nvalue = [374, 158, 37, 354, 1543, 141, 888, 817]"] ;
1 -> 2 ;
3 [label="Fwd Seg Size Min <= 1.996\ngini = 0.676\nsamples = 1738\nvalue = [216, 121, 15, 7, 36, 0, 752, 591]"] ;
2 -> 3 ;
4 [label="Idle Max <= 0.968\ngini = 0.56\nsamples = 1180\nvalue = [129, 121, 15, 7, 36, 0, 752, 120]"] ;
3 -> 4 ;
5 [label="hour <= 2.5\ngini = 0.182\nsamples = 786\nvalue = [16, 9, 2, 0, 5, 0, 709, 45]"] ;
4 -> 5 ;
6 [label="col_95 <= 0.5\ngini = 0.12\nsamples = 754\nvalue = [16, 8, 2, 0, 5, 0, 707, 16]"] ;
5 -> 6 ;
7 [label="col_29 <= 0.5\ngini = 0.065\nsamples = 729\nvalue = [6, 8, 2, 0, 5, 0, 705, 3]"] ;
6 -> 7 ;
8 [label="RST Flag Count <= 4.267\ngini = 0.02\nsamples = 712\nvalue = [1, 1, 2, 0, 0, 0, 705, 3]"] ;
7 -> 8 ;
9 [label="Flow IAT Min <= 8.841\ngini = 0.014\nsamples = 710\nvalue = [1, 1, 2, 0, 0, 0, 705, 1]"] ;
8 -> 9 ;
10 [label="col_42 <= 0.5\ngini = 0.006\nsamples = 706\nvalue = [0, 1, 0, 0, 0, 0, 704, 1]"] ;
9 -> 10 ;
11 [label="Flow IAT Min <= 4.427\ngini = 0.003\nsamples = 705\nvalue = [0, 1, 0, 0, 0, 0, 704, 0]"] ;
10 -> 11 ;
12 [label="gini = 0.0\nsamples = 671\nvalue = [0, 0, 0, 0, 0, 0, 671, 0]"] ;
11 -> 12 ;
13 [label="Flow IAT Max <= 1.122\ngini = 0.057\nsamples = 34\nvalue = [0, 1, 0, 0, 0, 0, 33, 0]"] ;
11 -> 13 ;
14 [label="gini = 0.0\nsamples = 1\nvalue = [0, 1, 0, 0, 0, 0, 0, 0]"] ;
13 -> 14 ;
15 [label="gini = 0.0\nsamples = 33\nvalue = [0, 0, 0, 0, 0, 0, 33, 0]"] ;
13 -> 15 ;
16 [label="gini = 0.0\nsamples = 1\nvalue = [0, 0, 0, 0, 0, 0, 0, 1]"] ;
10 -> 16 ;
17 [label="Flow IAT Max <= 3.943\ngini = 0.625\nsamples = 4\nvalue = [1, 0, 2, 0, 0, 0, 1, 0]"] ;
9 -> 17 ;
18 [label="gini = 0.0\nsamples = 2\nvalue = [0, 0, 2, 0, 0, 0, 0, 0]"] ;
17 -> 18 ;
19 [label="Dst Port <= 69.0\ngini = 0.5\nsamples = 2\nvalue = [1, 0, 0, 0, 0, 0, 1, 0]"] ;
17 -> 19 ;
20 [label="gini = 0.0\nsamples = 1\nvalue = [1, 0, 0, 0, 0, 0, 0, 0]"] ;
19 -> 20 ;
21 [label="gini = 0.0\nsamples = 1\nvalue = [0, 0, 0, 0, 0, 0, 1, 0]"] ;
19 -> 21 ;
22 [label="gini = 0.0\nsamples = 2\nvalue = [0, 0, 0, 0, 0, 0, 0, 2]"] ;
8 -> 22 ;
23 [label="hour <= 1.5\ngini = 0.657\nsamples = 17\nvalue = [5, 7, 0, 0, 5, 0, 0, 0]"] ;
7 -> 23 ;
24 [label="Dst Port <= 4722.0\ngini = 0.469\nsamples = 8\nvalue = [3, 0, 0, 0, 5, 0, 0, 0]"] ;
23 -> 24 ;
25 [label="gini = 0.0\nsamples = 3\nvalue = [3, 0, 0, 0, 0, 0, 0, 0]"] ;
24 -> 25 ;
26 [label="gini = 0.0\nsamples = 5\nvalue = [0, 0, 0, 0, 5, 0, 0, 0]"] ;
24 -> 26 ;
27 [label="Fwd IAT Mean <= -0.358\ngini = 0.346\nsamples = 9\nvalue = [2, 7, 0, 0, 0, 0, 0, 0]"] ;
23 -> 27 ;
28 [label="gini = 0.0\nsamples = 7\nvalue = [0, 7, 0, 0, 0, 0, 0, 0]"] ;
27 -> 28 ;
29 [label="gini = 0.0\nsamples = 2\nvalue = [2, 0, 0, 0, 0, 0, 0, 0]"] ;
27 -> 29 ;
30 [label="hour <= 1.5\ngini = 0.563\nsamples = 25\nvalue = [10, 0, 0, 0, 0, 0, 2, 13]"] ;
6 -> 30 ;
31 [label="Packet Length Max <= -0.318\ngini = 0.278\nsamples = 12\nvalue = [10, 0, 0, 0, 0, 0, 2, 0]"] ;
30 -> 31 ;
32 [label="gini = 0.0\nsamples = 2\nvalue = [0, 0, 0, 0, 0, 0, 2, 0]"] ;
31 -> 32 ;
33 [label="gini = 0.0\nsamples = 10\nvalue = [10, 0, 0, 0, 0, 0, 0, 0]"] ;
31 -> 33 ;
34 [label="gini = 0.0\nsamples = 13\nvalue = [0, 0, 0, 0, 0, 0, 0, 13]"] ;
30 -> 34 ;
35 [label="col_91 <= 0.5\ngini = 0.174\nsamples = 32\nvalue = [0, 1, 0, 0, 0, 0, 2, 29]"] ;
5 -> 35 ;
36 [label="col_41 <= 0.5\ngini = 0.444\nsamples = 3\nvalue = [0, 1, 0, 0, 0, 0, 2, 0]"] ;
35 -> 36 ;
37 [label="gini = 0.0\nsamples = 2\nvalue = [0, 0, 0, 0, 0, 0, 2, 0]"] ;
36 -> 37 ;
38 [label="gini = 0.0\nsamples = 1\nvalue = [0, 1, 0, 0, 0, 0, 0, 0]"] ;
36 -> 38 ;
39 [label="gini = 0.0\nsamples = 29\nvalue = [0, 0, 0, 0, 0, 0, 0, 29]"] ;
35 -> 39 ;
40 [label="Idle Max <= 0.975\ngini = 0.781\nsamples = 394\nvalue = [113, 112, 13, 7, 31, 0, 43, 75]"] ;
4 -> 40 ;
41 [label="hour <= 1.5\ngini = 0.767\nsamples = 219\nvalue = [51, 0, 13, 7, 31, 0, 42, 75]"] ;
40 -> 41 ;
42 [label="col_18 <= 0.5\ngini = 0.568\nsamples = 88\nvalue = [50, 0, 3, 7, 28, 0, 0, 0]"] ;
41 -> 42 ;
43 [label="col_62 <= 0.5\ngini = 0.196\nsamples = 56\nvalue = [50, 0, 2, 0, 4, 0, 0, 0]"] ;
42 -> 43 ;
44 [label="Idle Min <= 1.174\ngini = 0.074\nsamples = 52\nvalue = [50, 0, 2, 0, 0, 0, 0, 0]"] ;
43 -> 44 ;
45 [label="gini = 0.0\nsamples = 50\nvalue = [50, 0, 0, 0, 0, 0, 0, 0]"] ;
44 -> 45 ;
46 [label="gini = 0.0\nsamples = 2\nvalue = [0, 0, 2, 0, 0, 0, 0, 0]"] ;
44 -> 46 ;
47 [label="gini = 0.0\nsamples = 4\nvalue = [0, 0, 0, 0, 4, 0, 0, 0]"] ;
43 -> 47 ;
48 [label="Idle Max <= 0.974\ngini = 0.389\nsamples = 32\nvalue = [0, 0, 1, 7, 24, 0, 0, 0]"] ;
42 -> 48 ;
49 [label="Src Port <= 49445.5\ngini = 0.5\nsamples = 14\nvalue = [0, 0, 0, 7, 7, 0, 0, 0]"] ;
48 -> 49 ;
50 [label="col_17 <= 0.5\ngini = 0.219\nsamples = 8\nvalue = [0, 0, 0, 7, 1, 0, 0, 0]"] ;
49 -> 50 ;
51 [label="gini = 0.0\nsamples = 1\nvalue = [0, 0, 0, 0, 1, 0, 0, 0]"] ;
50 -> 51 ;
52 [label="gini = 0.0\nsamples = 7\nvalue = [0, 0, 0, 7, 0, 0, 0, 0]"] ;
50 -> 52 ;
53 [label="gini = 0.0\nsamples = 6\nvalue = [0, 0, 0, 0, 6, 0, 0, 0]"] ;
49 -> 53 ;
54 [label="Idle Min <= 1.174\ngini = 0.105\nsamples = 18\nvalue = [0, 0, 1, 0, 17, 0, 0, 0]"] ;
48 -> 54 ;
55 [label="gini = 0.0\nsamples = 17\nvalue = [0, 0, 0, 0, 17, 0, 0, 0]"] ;
54 -> 55 ;
56 [label="gini = 0.0\nsamples = 1\nvalue = [0, 0, 1, 0, 0, 0, 0, 0]"] ;
54 -> 56 ;
57 [label="Idle Max <= 0.971\ngini = 0.563\nsamples = 131\nvalue = [1, 0, 10, 0, 3, 0, 42, 75]"] ;
41 -> 57 ;
58 [label="gini = 0.0\nsamples = 75\nvalue = [0, 0, 0, 0, 0, 0, 0, 75]"] ;
57 -> 58 ;
59 [label="Idle Min <= 1.174\ngini = 0.402\nsamples = 56\nvalue = [1, 0, 10, 0, 3, 0, 42, 0]"] ;
57 -> 59 ;
60 [label="Flow IAT Max <= 0.196\ngini = 0.439\nsamples = 14\nvalue = [1, 0, 10, 0, 3, 0, 0, 0]"] ;
59 -> 60 ;
61 [label="Dst Port <= 276.5\ngini = 0.375\nsamples = 4\nvalue = [1, 0, 0, 0, 3, 0, 0, 0]"] ;
60 -> 61 ;
62 [label="gini = 0.0\nsamples = 1\nvalue = [1, 0, 0, 0, 0, 0, 0, 0]"] ;
61 -> 62 ;
63 [label="gini = 0.0\nsamples = 3\nvalue = [0, 0, 0, 0, 3, 0, 0, 0]"] ;
61 -> 63 ;
64 [label="gini = 0.0\nsamples = 10\nvalue = [0, 0, 10, 0, 0, 0, 0, 0]"] ;
60 -> 64 ;
65 [label="gini = 0.0\nsamples = 42\nvalue = [0, 0, 0, 0, 0, 0, 42, 0]"] ;
59 -> 65 ;
66 [label="Subflow Bwd Bytes <= 5.581\ngini = 0.465\nsamples = 175\nvalue = [62, 112, 0, 0, 0, 0, 1, 0]"] ;
40 -> 66 ;
67 [label="Src Port <= 58723.0\ngini = 0.247\nsamples = 126\nvalue = [17, 108, 0, 0, 0, 0, 1, 0]"] ;
66 -> 67 ;
68 [label="Bwd IAT Min <= -0.16\ngini = 0.156\nsamples = 118\nvalue = [9, 108, 0, 0, 0, 0, 1, 0]"] ;
67 -> 68 ;
69 [label="Dst Port <= 44863.0\ngini = 0.104\nsamples = 110\nvalue = [5, 104, 0, 0, 0, 0, 1, 0]"] ;
68 -> 69 ;
70 [label="Subflow Bwd Bytes <= 5.22\ngini = 0.071\nsamples = 108\nvalue = [4, 104, 0, 0, 0, 0, 0, 0]"] ;
69 -> 70 ;
71 [label="Fwd IAT Max <= -0.464\ngini = 0.038\nsamples = 103\nvalue = [2, 101, 0, 0, 0, 0, 0, 0]"] ;
70 -> 71 ;
72 [label="col_46 <= 0.5\ngini = 0.444\nsamples = 3\nvalue = [1, 2, 0, 0, 0, 0, 0, 0]"] ;
71 -> 72 ;
73 [label="gini = 0.0\nsamples = 2\nvalue = [0, 2, 0, 0, 0, 0, 0, 0]"] ;
72 -> 73 ;
74 [label="gini = 0.0\nsamples = 1\nvalue = [1, 0, 0, 0, 0, 0, 0, 0]"] ;
72 -> 74 ;
75 [label="Bwd IAT Min <= -0.178\ngini = 0.02\nsamples = 100\nvalue = [1, 99, 0, 0, 0, 0, 0, 0]"] ;
71 -> 75 ;
76 [label="gini = 0.0\nsamples = 96\nvalue = [0, 96, 0, 0, 0, 0, 0, 0]"] ;
75 -> 76 ;
77 [label="Bwd Segment Size Avg <= 0.289\ngini = 0.375\nsamples = 4\nvalue = [1, 3, 0, 0, 0, 0, 0, 0]"] ;
75 -> 77 ;
78 [label="gini = 0.0\nsamples = 1\nvalue = [1, 0, 0, 0, 0, 0, 0, 0]"] ;
77 -> 78 ;
79 [label="gini = 0.0\nsamples = 3\nvalue = [0, 3, 0, 0, 0, 0, 0, 0]"] ;
77 -> 79 ;
80 [label="Idle Max <= 1.001\ngini = 0.48\nsamples = 5\nvalue = [2, 3, 0, 0, 0, 0, 0, 0]"] ;
70 -> 80 ;
81 [label="gini = 0.0\nsamples = 3\nvalue = [0, 3, 0, 0, 0, 0, 0, 0]"] ;
80 -> 81 ;
82 [label="gini = 0.0\nsamples = 2\nvalue = [2, 0, 0, 0, 0, 0, 0, 0]"] ;
80 -> 82 ;
83 [label="Fwd Packet Length Mean <= 0.754\ngini = 0.5\nsamples = 2\nvalue = [1, 0, 0, 0, 0, 0, 1, 0]"] ;
69 -> 83 ;
84 [label="gini = 0.0\nsamples = 1\nvalue = [0, 0, 0, 0, 0, 0, 1, 0]"] ;
83 -> 84 ;
85 [label="gini = 0.0\nsamples = 1\nvalue = [1, 0, 0, 0, 0, 0, 0, 0]"] ;
83 -> 85 ;
86 [label="Src Port <= 51650.0\ngini = 0.5\nsamples = 8\nvalue = [4, 4, 0, 0, 0, 0, 0, 0]"] ;
68 -> 86 ;
87 [label="gini = 0.0\nsamples = 4\nvalue = [0, 4, 0, 0, 0, 0, 0, 0]"] ;
86 -> 87 ;
88 [label="gini = 0.0\nsamples = 4\nvalue = [4, 0, 0, 0, 0, 0, 0, 0]"] ;
86 -> 88 ;
89 [label="gini = 0.0\nsamples = 8\nvalue = [8, 0, 0, 0, 0, 0, 0, 0]"] ;
67 -> 89 ;
90 [label="Src Port <= 51427.0\ngini = 0.15\nsamples = 49\nvalue = [45, 4, 0, 0, 0, 0, 0, 0]"] ;
66 -> 90 ;
91 [label="gini = 0.0\nsamples = 4\nvalue = [0, 4, 0, 0, 0, 0, 0, 0]"] ;
90 -> 91 ;
92 [label="gini = 0.0\nsamples = 45\nvalue = [45, 0, 0, 0, 0, 0, 0, 0]"] ;
90 -> 92 ;
93 [label="hour <= 1.5\ngini = 0.263\nsamples = 558\nvalue = [87, 0, 0, 0, 0, 0, 0, 471]"] ;
3 -> 93 ;
94 [label="gini = 0.0\nsamples = 87\nvalue = [87, 0, 0, 0, 0, 0, 0, 0]"] ;
93 -> 94 ;
95 [label="gini = 0.0\nsamples = 471\nvalue = [0, 0, 0, 0, 0, 0, 0, 471]"] ;
93 -> 95 ;
96 [label="col_58 <= 0.5\ngini = 0.622\nsamples = 2574\nvalue = [158, 37, 22, 347, 1507, 141, 136, 226]"] ;
2 -> 96 ;
97 [label="col_45 <= 0.5\ngini = 0.808\nsamples = 556\nvalue = [79, 37, 21, 0, 31, 141, 128, 119]"] ;
96 -> 97 ;
98 [label="Idle Max <= 0.975\ngini = 0.7\nsamples = 326\nvalue = [18, 13, 21, 0, 20, 7, 128, 119]"] ;
97 -> 98 ;
99 [label="hour <= 11.5\ngini = 0.68\nsamples = 231\nvalue = [16, 11, 21, 0, 20, 1, 44, 118]"] ;
98 -> 99 ;
100 [label="Flow Duration <= -0.063\ngini = 0.529\nsamples = 184\nvalue = [2, 1, 15, 0, 5, 1, 42, 118]"] ;
99 -> 100 ;
101 [label="Flow Packets/s <= -0.212\ngini = 0.554\nsamples = 75\nvalue = [2, 1, 1, 0, 0, 1, 40, 30]"] ;
100 -> 101 ;
102 [label="gini = 0.0\nsamples = 15\nvalue = [0, 0, 0, 0, 0, 0, 15, 0]"] ;
101 -> 102 ;
103 [label="Flow IAT Min <= -0.16\ngini = 0.574\nsamples = 60\nvalue = [2, 1, 1, 0, 0, 1, 25, 30]"] ;
101 -> 103 ;
104 [label="col_20 <= 0.5\ngini = 0.551\nsamples = 14\nvalue = [2, 1, 1, 0, 0, 1, 0, 9]"] ;
103 -> 104 ;
105 [label="Flow Packets/s <= -0.21\ngini = 0.18\nsamples = 10\nvalue = [0, 0, 1, 0, 0, 0, 0, 9]"] ;
104 -> 105 ;
106 [label="gini = 0.0\nsamples = 1\nvalue = [0, 0, 1, 0, 0, 0, 0, 0]"] ;
105 -> 106 ;
107 [label="gini = 0.0\nsamples = 9\nvalue = [0, 0, 0, 0, 0, 0, 0, 9]"] ;
105 -> 107 ;
108 [label="Bwd Packets/s <= -0.039\ngini = 0.625\nsamples = 4\nvalue = [2, 1, 0, 0, 0, 1, 0, 0]"] ;
104 -> 108 ;
109 [label="gini = 0.0\nsamples = 2\nvalue = [2, 0, 0, 0, 0, 0, 0, 0]"] ;
108 -> 109 ;
110 [label="Bwd Packets/s <= 0.055\ngini = 0.5\nsamples = 2\nvalue = [0, 1, 0, 0, 0, 1, 0, 0]"] ;
108 -> 110 ;
111 [label="gini = 0.0\nsamples = 1\nvalue = [0, 0, 0, 0, 0, 1, 0, 0]"] ;
110 -> 111 ;
112 [label="gini = 0.0\nsamples = 1\nvalue = [0, 1, 0, 0, 0, 0, 0, 0]"] ;
110 -> 112 ;
113 [label="Flow IAT Max <= -0.501\ngini = 0.496\nsamples = 46\nvalue = [0, 0, 0, 0, 0, 0, 25, 21]"] ;
103 -> 113 ;
114 [label="Packet Length Variance <= -0.021\ngini = 0.34\nsamples = 23\nvalue = [0, 0, 0, 0, 0, 0, 18, 5]"] ;
113 -> 114 ;
115 [label="Src Port <= 48212.5\ngini = 0.105\nsamples = 18\nvalue = [0, 0, 0, 0, 0, 0, 17, 1]"] ;
114 -> 115 ;
116 [label="gini = 0.0\nsamples = 13\nvalue = [0, 0, 0, 0, 0, 0, 13, 0]"] ;
115 -> 116 ;
117 [label="Src Port <= 48934.5\ngini = 0.32\nsamples = 5\nvalue = [0, 0, 0, 0, 0, 0, 4, 1]"] ;
115 -> 117 ;
118 [label="gini = 0.0\nsamples = 1\nvalue = [0, 0, 0, 0, 0, 0, 0, 1]"] ;
117 -> 118 ;
119 [label="gini = 0.0\nsamples = 4\nvalue = [0, 0, 0, 0, 0, 0, 4, 0]"] ;
117 -> 119 ;
120 [label="Src Port <= 29117.0\ngini = 0.32\nsamples = 5\nvalue = [0, 0, 0, 0, 0, 0, 1, 4]"] ;
114 -> 120 ;
121 [label="gini = 0.0\nsamples = 4\nvalue = [0, 0, 0, 0, 0, 0, 0, 4]"] ;
120 -> 121 ;
122 [label="gini = 0.0\nsamples = 1\nvalue = [0, 0, 0, 0, 0, 0, 1, 0]"] ;
120 -> 122 ;
123 [label="Fwd Packet Length Min <= 0.794\ngini = 0.423\nsamples = 23\nvalue = [0, 0, 0, 0, 0, 0, 7, 16]"] ;
113 -> 123 ;
124 [label="col_91 <= 0.5\ngini = 0.245\nsamples = 14\nvalue = [0, 0, 0, 0, 0, 0, 2, 12]"] ;
123 -> 124 ;
125 [label="gini = 0.0\nsamples = 10\nvalue = [0, 0, 0, 0, 0, 0, 0, 10]"] ;
124 -> 125 ;
126 [label="Bwd Packets/s <= -0.212\ngini = 0.5\nsamples = 4\nvalue = [0, 0, 0, 0, 0, 0, 2, 2]"] ;
124 -> 126 ;
127 [label="gini = 0.0\nsamples = 1\nvalue = [0, 0, 0, 0, 0, 0, 1, 0]"] ;
126 -> 127 ;
128 [label="Dst Port <= 261.5\ngini = 0.444\nsamples = 3\nvalue = [0, 0, 0, 0, 0, 0, 1, 2]"] ;
126 -> 128 ;
129 [label="gini = 0.0\nsamples = 1\nvalue = [0, 0, 0, 0, 0, 0, 1, 0]"] ;
128 -> 129 ;
130 [label="gini = 0.0\nsamples = 2\nvalue = [0, 0, 0, 0, 0, 0, 0, 2]"] ;
128 -> 130 ;
131 [label="Fwd Packet Length Max <= -0.251\ngini = 0.494\nsamples = 9\nvalue = [0, 0, 0, 0, 0, 0, 5, 4]"] ;
123 -> 131 ;
132 [label="Packet Length Variance <= -0.021\ngini = 0.32\nsamples = 5\nvalue = [0, 0, 0, 0, 0, 0, 4, 1]"] ;
131 -> 132 ;
133 [label="gini = 0.0\nsamples = 4\nvalue = [0, 0, 0, 0, 0, 0, 4, 0]"] ;
132 -> 133 ;
134 [label="gini = 0.0\nsamples = 1\nvalue = [0, 0, 0, 0, 0, 0, 0, 1]"] ;
132 -> 134 ;
135 [label="Src Port <= 49886.0\ngini = 0.375\nsamples = 4\nvalue = [0, 0, 0, 0, 0, 0, 1, 3]"] ;
131 -> 135 ;
136 [label="gini = 0.0\nsamples = 3\nvalue = [0, 0, 0, 0, 0, 0, 0, 3]"] ;
135 -> 136 ;
137 [label="gini = 0.0\nsamples = 1\nvalue = [0, 0, 0, 0, 0, 0, 1, 0]"] ;
135 -> 137 ;
138 [label="Dst Port <= 43891.0\ngini = 0.329\nsamples = 109\nvalue = [0, 0, 14, 0, 5, 0, 2, 88]"] ;
100 -> 138 ;
139 [label="hour <= 6.5\ngini = 0.19\nsamples = 98\nvalue = [0, 0, 3, 0, 5, 0, 2, 88]"] ;
138 -> 139 ;
140 [label="gini = 0.0\nsamples = 5\nvalue = [0, 0, 0, 0, 5, 0, 0, 0]"] ;
139 -> 140 ;
141 [label="Src Port <= 44771.0\ngini = 0.103\nsamples = 93\nvalue = [0, 0, 3, 0, 0, 0, 2, 88]"] ;
139 -> 141 ;
142 [label="Bwd Packet Length Max <= 15.862\ngini = 0.046\nsamples = 85\nvalue = [0, 0, 0, 0, 0, 0, 2, 83]"] ;
141 -> 142 ;
143 [label="Flow IAT Min <= -0.155\ngini = 0.024\nsamples = 84\nvalue = [0, 0, 0, 0, 0, 0, 1, 83]"] ;
142 -> 143 ;
144 [label="gini = 0.0\nsamples = 78\nvalue = [0, 0, 0, 0, 0, 0, 0, 78]"] ;
143 -> 144 ;
145 [label="Idle Mean <= 1.028\ngini = 0.278\nsamples = 6\nvalue = [0, 0, 0, 0, 0, 0, 1, 5]"] ;
143 -> 145 ;
146 [label="gini = 0.0\nsamples = 5\nvalue = [0, 0, 0, 0, 0, 0, 0, 5]"] ;
145 -> 146 ;
147 [label="gini = 0.0\nsamples = 1\nvalue = [0, 0, 0, 0, 0, 0, 1, 0]"] ;
145 -> 147 ;
148 [label="gini = 0.0\nsamples = 1\nvalue = [0, 0, 0, 0, 0, 0, 1, 0]"] ;
142 -> 148 ;
149 [label="Fwd Packet Length Max <= 0.802\ngini = 0.469\nsamples = 8\nvalue = [0, 0, 3, 0, 0, 0, 0, 5]"] ;
141 -> 149 ;
150 [label="gini = 0.0\nsamples = 5\nvalue = [0, 0, 0, 0, 0, 0, 0, 5]"] ;
149 -> 150 ;
151 [label="gini = 0.0\nsamples = 3\nvalue = [0, 0, 3, 0, 0, 0, 0, 0]"] ;
149 -> 151 ;
152 [label="gini = 0.0\nsamples = 11\nvalue = [0, 0, 11, 0, 0, 0, 0, 0]"] ;
138 -> 152 ;
153 [label="col_18 <= 0.5\ngini = 0.746\nsamples = 47\nvalue = [14, 10, 6, 0, 15, 0, 2, 0]"] ;
99 -> 153 ;
154 [label="hour <= 12.5\ngini = 0.672\nsamples = 32\nvalue = [14, 10, 6, 0, 0, 0, 2, 0]"] ;
153 -> 154 ;
155 [label="FWD Init Win Bytes <= 2.815\ngini = 0.219\nsamples = 16\nvalue = [14, 0, 0, 0, 0, 0, 2, 0]"] ;
154 -> 155 ;
156 [label="gini = 0.0\nsamples = 14\nvalue = [14, 0, 0, 0, 0, 0, 0, 0]"] ;
155 -> 156 ;
157 [label="gini = 0.0\nsamples = 2\nvalue = [0, 0, 0, 0, 0, 0, 2, 0]"] ;
155 -> 157 ;
158 [label="Dst Port <= 21709.5\ngini = 0.469\nsamples = 16\nvalue = [0, 10, 6, 0, 0, 0, 0, 0]"] ;
154 -> 158 ;
159 [label="Flow IAT Min <= 0.175\ngini = 0.355\nsamples = 13\nvalue = [0, 10, 3, 0, 0, 0, 0, 0]"] ;
158 -> 159 ;
160 [label="Bwd IAT Std <= -0.26\ngini = 0.278\nsamples = 12\nvalue = [0, 10, 2, 0, 0, 0, 0, 0]"] ;
159 -> 160 ;
161 [label="Flow Duration <= -0.547\ngini = 0.165\nsamples = 11\nvalue = [0, 10, 1, 0, 0, 0, 0, 0]"] ;
160 -> 161 ;
162 [label="gini = 0.0\nsamples = 1\nvalue = [0, 0, 1, 0, 0, 0, 0, 0]"] ;
161 -> 162 ;
163 [label="gini = 0.0\nsamples = 10\nvalue = [0, 10, 0, 0, 0, 0, 0, 0]"] ;
161 -> 163 ;
164 [label="gini = 0.0\nsamples = 1\nvalue = [0, 0, 1, 0, 0, 0, 0, 0]"] ;
160 -> 164 ;
165 [label="gini = 0.0\nsamples = 1\nvalue = [0, 0, 1, 0, 0, 0, 0, 0]"] ;
159 -> 165 ;
166 [label="gini = 0.0\nsamples = 3\nvalue = [0, 0, 3, 0, 0, 0, 0, 0]"] ;
158 -> 166 ;
167 [label="gini = 0.0\nsamples = 15\nvalue = [0, 0, 0, 0, 15, 0, 0, 0]"] ;
153 -> 167 ;
168 [label="Idle Max <= 0.977\ngini = 0.213\nsamples = 95\nvalue = [2, 2, 0, 0, 0, 6, 84, 1]"] ;
98 -> 168 ;
169 [label="gini = 0.0\nsamples = 84\nvalue = [0, 0, 0, 0, 0, 0, 84, 0]"] ;
168 -> 169 ;
170 [label="Src Port <= 45785.5\ngini = 0.628\nsamples = 11\nvalue = [2, 2, 0, 0, 0, 6, 0, 1]"] ;
168 -> 170 ;
171 [label="Flow IAT Max <= -0.309\ngini = 0.444\nsamples = 3\nvalue = [0, 2, 0, 0, 0, 0, 0, 1]"] ;
170 -> 171 ;
172 [label="gini = 0.0\nsamples = 2\nvalue = [0, 2, 0, 0, 0, 0, 0, 0]"] ;
171 -> 172 ;
173 [label="gini = 0.0\nsamples = 1\nvalue = [0, 0, 0, 0, 0, 0, 0, 1]"] ;
171 -> 173 ;
174 [label="Fwd IAT Min <= -0.169\ngini = 0.375\nsamples = 8\nvalue = [2, 0, 0, 0, 0, 6, 0, 0]"] ;
170 -> 174 ;
175 [label="gini = 0.0\nsamples = 6\nvalue = [0, 0, 0, 0, 0, 6, 0, 0]"] ;
174 -> 175 ;
176 [label="gini = 0.0\nsamples = 2\nvalue = [2, 0, 0, 0, 0, 0, 0, 0]"] ;
174 -> 176 ;
177 [label="Flow IAT Std <= -0.407\ngini = 0.577\nsamples = 230\nvalue = [61, 24, 0, 0, 11, 134, 0, 0]"] ;
97 -> 177 ;
178 [label="Fwd Packet Length Std <= 3.53\ngini = 0.143\nsamples = 132\nvalue = [2, 2, 0, 0, 6, 122, 0, 0]"] ;
177 -> 178 ;
179 [label="Flow IAT Min <= -0.16\ngini = 0.062\nsamples = 126\nvalue = [2, 2, 0, 0, 0, 122, 0, 0]"] ;
178 -> 179 ;
180 [label="gini = 0.0\nsamples = 119\nvalue = [0, 0, 0, 0, 0, 119, 0, 0]"] ;
179 -> 180 ;
181 [label="Flow IAT Max <= -0.503\ngini = 0.653\nsamples = 7\nvalue = [2, 2, 0, 0, 0, 3, 0, 0]"] ;
179 -> 181 ;
182 [label="gini = 0.0\nsamples = 2\nvalue = [0, 2, 0, 0, 0, 0, 0, 0]"] ;
181 -> 182 ;
183 [label="hour <= 10.0\ngini = 0.48\nsamples = 5\nvalue = [2, 0, 0, 0, 0, 3, 0, 0]"] ;
181 -> 183 ;
184 [label="gini = 0.0\nsamples = 3\nvalue = [0, 0, 0, 0, 0, 3, 0, 0]"] ;
183 -> 184 ;
185 [label="gini = 0.0\nsamples = 2\nvalue = [2, 0, 0, 0, 0, 0, 0, 0]"] ;
183 -> 185 ;
186 [label="gini = 0.0\nsamples = 6\nvalue = [0, 0, 0, 0, 6, 0, 0, 0]"] ;
178 -> 186 ;
187 [label="hour <= 10.0\ngini = 0.57\nsamples = 98\nvalue = [59, 22, 0, 0, 5, 12, 0, 0]"] ;
177 -> 187 ;
188 [label="Idle Max <= 1.001\ngini = 0.412\nsamples = 31\nvalue = [0, 22, 0, 0, 0, 9, 0, 0]"] ;
187 -> 188 ;
189 [label="gini = 0.0\nsamples = 9\nvalue = [0, 0, 0, 0, 0, 9, 0, 0]"] ;
188 -> 189 ;
190 [label="gini = 0.0\nsamples = 22\nvalue = [0, 22, 0, 0, 0, 0, 0, 0]"] ;
188 -> 190 ;
191 [label="Idle Min <= 1.2\ngini = 0.217\nsamples = 67\nvalue = [59, 0, 0, 0, 5, 3, 0, 0]"] ;
187 -> 191 ;
192 [label="Packet Length Mean <= 1.049\ngini = 0.092\nsamples = 62\nvalue = [59, 0, 0, 0, 0, 3, 0, 0]"] ;
191 -> 192 ;
193 [label="gini = 0.0\nsamples = 2\nvalue = [0, 0, 0, 0, 0, 2, 0, 0]"] ;
192 -> 193 ;
194 [label="Fwd IAT Min <= -0.198\ngini = 0.033\nsamples = 60\nvalue = [59, 0, 0, 0, 0, 1, 0, 0]"] ;
192 -> 194 ;
195 [label="gini = 0.0\nsamples = 59\nvalue = [59, 0, 0, 0, 0, 0, 0, 0]"] ;
194 -> 195 ;
196 [label="gini = 0.0\nsamples = 1\nvalue = [0, 0, 0, 0, 0, 1, 0, 0]"] ;
194 -> 196 ;
197 [label="gini = 0.0\nsamples = 5\nvalue = [0, 0, 0, 0, 5, 0, 0, 0]"] ;
191 -> 197 ;
198 [label="hour <= 11.5\ngini = 0.431\nsamples = 2018\nvalue = [79, 0, 1, 347, 1476, 0, 8, 107]"] ;
96 -> 198 ;
199 [label="Idle Max <= 0.97\ngini = 0.382\nsamples = 1934\nvalue = [0, 0, 1, 347, 1476, 0, 3, 107]"] ;
198 -> 199 ;
200 [label="Flow Duration <= -0.542\ngini = 0.328\nsamples = 1831\nvalue = [0, 0, 0, 251, 1476, 0, 0, 104]"] ;
199 -> 200 ;
201 [label="hour <= 10.5\ngini = 0.519\nsamples = 545\nvalue = [0, 0, 0, 247, 286, 0, 0, 12]"] ;
200 -> 201 ;
202 [label="col_5 <= 0.5\ngini = 0.135\nsamples = 151\nvalue = [0, 0, 0, 0, 140, 0, 0, 11]"] ;
201 -> 202 ;
203 [label="FWD Init Win Bytes <= 5.446\ngini = 0.028\nsamples = 142\nvalue = [0, 0, 0, 0, 140, 0, 0, 2]"] ;
202 -> 203 ;
204 [label="col_55 <= 0.5\ngini = 0.014\nsamples = 141\nvalue = [0, 0, 0, 0, 140, 0, 0, 1]"] ;
203 -> 204 ;
205 [label="gini = 0.0\nsamples = 138\nvalue = [0, 0, 0, 0, 138, 0, 0, 0]"] ;
204 -> 205 ;
206 [label="Flow Duration <= -0.547\ngini = 0.444\nsamples = 3\nvalue = [0, 0, 0, 0, 2, 0, 0, 1]"] ;
204 -> 206 ;
207 [label="gini = 0.0\nsamples = 2\nvalue = [0, 0, 0, 0, 2, 0, 0, 0]"] ;
206 -> 207 ;
208 [label="gini = 0.0\nsamples = 1\nvalue = [0, 0, 0, 0, 0, 0, 0, 1]"] ;
206 -> 208 ;
209 [label="gini = 0.0\nsamples = 1\nvalue = [0, 0, 0, 0, 0, 0, 0, 1]"] ;
203 -> 209 ;
210 [label="gini = 0.0\nsamples = 9\nvalue = [0, 0, 0, 0, 0, 0, 0, 9]"] ;
202 -> 210 ;
211 [label="Packet Length Mean <= 0.185\ngini = 0.47\nsamples = 394\nvalue = [0, 0, 0, 247, 146, 0, 0, 1]"] ;
201 -> 211 ;
212 [label="Src Port <= 38262.5\ngini = 0.427\nsamples = 356\nvalue = [0, 0, 0, 247, 108, 0, 0, 1]"] ;
211 -> 212 ;
213 [label="Bwd Packets/s <= -0.214\ngini = 0.305\nsamples = 247\nvalue = [0, 0, 0, 201, 45, 0, 0, 1]"] ;
212 -> 213 ;
214 [label="Dst Port <= 38394.0\ngini = 0.114\nsamples = 165\nvalue = [0, 0, 0, 155, 10, 0, 0, 0]"] ;
213 -> 214 ;
215 [label="col_58 <= 1.5\ngini = 0.026\nsamples = 149\nvalue = [0, 0, 0, 147, 2, 0, 0, 0]"] ;
214 -> 215 ;
216 [label="Bwd Packets/s <= -0.214\ngini = 0.013\nsamples = 148\nvalue = [0, 0, 0, 147, 1, 0, 0, 0]"] ;
215 -> 216 ;
217 [label="gini = 0.0\nsamples = 143\nvalue = [0, 0, 0, 143, 0, 0, 0, 0]"] ;
216 -> 217 ;
218 [label="Fwd Segment Size Avg <= -0.151\ngini = 0.32\nsamples = 5\nvalue = [0, 0, 0, 4, 1, 0, 0, 0]"] ;
216 -> 218 ;
219 [label="gini = 0.0\nsamples = 1\nvalue = [0, 0, 0, 0, 1, 0, 0, 0]"] ;
218 -> 219 ;
220 [label="gini = 0.0\nsamples = 4\nvalue = [0, 0, 0, 4, 0, 0, 0, 0]"] ;
218 -> 220 ;
221 [label="gini = 0.0\nsamples = 1\nvalue = [0, 0, 0, 0, 1, 0, 0, 0]"] ;
215 -> 221 ;
222 [label="src_ip_country <= 86.5\ngini = 0.5\nsamples = 16\nvalue = [0, 0, 0, 8, 8, 0, 0, 0]"] ;
214 -> 222 ;
223 [label="gini = 0.0\nsamples = 6\nvalue = [0, 0, 0, 0, 6, 0, 0, 0]"] ;
222 -> 223 ;
224 [label="Fwd Header Length <= -0.061\ngini = 0.32\nsamples = 10\nvalue = [0, 0, 0, 8, 2, 0, 0, 0]"] ;
222 -> 224 ;
225 [label="gini = 0.0\nsamples = 8\nvalue = [0, 0, 0, 8, 0, 0, 0, 0]"] ;
224 -> 225 ;
226 [label="gini = 0.0\nsamples = 2\nvalue = [0, 0, 0, 0, 2, 0, 0, 0]"] ;
224 -> 226 ;
227 [label="Packet Length Mean <= -0.021\ngini = 0.503\nsamples = 82\nvalue = [0, 0, 0, 46, 35, 0, 0, 1]"] ;
213 -> 227 ;
228 [label="Src Port <= 261.5\ngini = 0.329\nsamples = 40\nvalue = [0, 0, 0, 7, 32, 0, 0, 1]"] ;
227 -> 228 ;
229 [label="Fwd Header Length <= -0.061\ngini = 0.32\nsamples = 5\nvalue = [0, 0, 0, 4, 1, 0, 0, 0]"] ;
228 -> 229 ;
230 [label="gini = 0.0\nsamples = 1\nvalue = [0, 0, 0, 0, 1, 0, 0, 0]"] ;
229 -> 230 ;
231 [label="gini = 0.0\nsamples = 4\nvalue = [0, 0, 0, 4, 0, 0, 0, 0]"] ;
229 -> 231 ;
232 [label="col_18 <= 0.5\ngini = 0.207\nsamples = 35\nvalue = [0, 0, 0, 3, 31, 0, 0, 1]"] ;
228 -> 232 ;
233 [label="col_55 <= 0.5\ngini = 0.161\nsamples = 34\nvalue = [0, 0, 0, 3, 31, 0, 0, 0]"] ;
232 -> 233 ;
234 [label="Subflow Fwd Bytes <= -0.146\ngini = 0.114\nsamples = 33\nvalue = [0, 0, 0, 2, 31, 0, 0, 0]"] ;
233 -> 234 ;
235 [label="Packet Length Min <= 0.84\ngini = 0.061\nsamples = 32\nvalue = [0, 0, 0, 1, 31, 0, 0, 0]"] ;
234 -> 235 ;
236 [label="gini = 0.0\nsamples = 25\nvalue = [0, 0, 0, 0, 25, 0, 0, 0]"] ;
235 -> 236 ;
237 [label="Flow Duration <= -0.543\ngini = 0.245\nsamples = 7\nvalue = [0, 0, 0, 1, 6, 0, 0, 0]"] ;
235 -> 237 ;
238 [label="gini = 0.0\nsamples = 1\nvalue = [0, 0, 0, 1, 0, 0, 0, 0]"] ;
237 -> 238 ;
239 [label="gini = 0.0\nsamples = 6\nvalue = [0, 0, 0, 0, 6, 0, 0, 0]"] ;
237 -> 239 ;
240 [label="gini = 0.0\nsamples = 1\nvalue = [0, 0, 0, 1, 0, 0, 0, 0]"] ;
234 -> 240 ;
241 [label="gini = 0.0\nsamples = 1\nvalue = [0, 0, 0, 1, 0, 0, 0, 0]"] ;
233 -> 241 ;
242 [label="gini = 0.0\nsamples = 1\nvalue = [0, 0, 0, 0, 0, 0, 0, 1]"] ;
232 -> 242 ;
243 [label="Fwd Packet Length Min <= 0.699\ngini = 0.133\nsamples = 42\nvalue = [0, 0, 0, 39, 3, 0, 0, 0]"] ;
227 -> 243 ;
244 [label="Bwd Packet Length Min <= 1.838\ngini = 0.054\nsamples = 36\nvalue = [0, 0, 0, 35, 1, 0, 0, 0]"] ;
243 -> 244 ;
245 [label="Flow Packets/s <= -0.212\ngini = 0.278\nsamples = 6\nvalue = [0, 0, 0, 5, 1, 0, 0, 0]"] ;
244 -> 245 ;
246 [label="gini = 0.0\nsamples = 1\nvalue = [0, 0, 0, 0, 1, 0, 0, 0]"] ;
245 -> 246 ;
247 [label="gini = 0.0\nsamples = 5\nvalue = [0, 0, 0, 5, 0, 0, 0, 0]"] ;
245 -> 247 ;
248 [label="gini = 0.0\nsamples = 30\nvalue = [0, 0, 0, 30, 0, 0, 0, 0]"] ;
244 -> 248 ;
249 [label="Bwd Packet Length Mean <= 0.635\ngini = 0.444\nsamples = 6\nvalue = [0, 0, 0, 4, 2, 0, 0, 0]"] ;
243 -> 249 ;
250 [label="gini = 0.0\nsamples = 2\nvalue = [0, 0, 0, 0, 2, 0, 0, 0]"] ;
249 -> 250 ;
251 [label="gini = 0.0\nsamples = 4\nvalue = [0, 0, 0, 4, 0, 0, 0, 0]"] ;
249 -> 251 ;
252 [label="Fwd Segment Size Avg <= -0.164\ngini = 0.488\nsamples = 109\nvalue = [0, 0, 0, 46, 63, 0, 0, 0]"] ;
212 -> 252 ;
253 [label="Flow Bytes/s <= 0.579\ngini = 0.216\nsamples = 65\nvalue = [0, 0, 0, 8, 57, 0, 0, 0]"] ;
252 -> 253 ;
254 [label="col_75 <= 0.5\ngini = 0.065\nsamples = 59\nvalue = [0, 0, 0, 2, 57, 0, 0, 0]"] ;
253 -> 254 ;
255 [label="gini = 0.0\nsamples = 57\nvalue = [0, 0, 0, 0, 57, 0, 0, 0]"] ;
254 -> 255 ;
256 [label="gini = 0.0\nsamples = 2\nvalue = [0, 0, 0, 2, 0, 0, 0, 0]"] ;
254 -> 256 ;
257 [label="gini = 0.0\nsamples = 6\nvalue = [0, 0, 0, 6, 0, 0, 0, 0]"] ;
253 -> 257 ;
258 [label="Subflow Fwd Bytes <= -0.179\ngini = 0.236\nsamples = 44\nvalue = [0, 0, 0, 38, 6, 0, 0, 0]"] ;
252 -> 258 ;
259 [label="Bwd Packet Length Mean <= 0.09\ngini = 0.114\nsamples = 33\nvalue = [0, 0, 0, 31, 2, 0, 0, 0]"] ;
258 -> 259 ;
260 [label="gini = 0.0\nsamples = 1\nvalue = [0, 0, 0, 0, 1, 0, 0, 0]"] ;
259 -> 260 ;
261 [label="Bwd Packet Length Max <= -0.014\ngini = 0.061\nsamples = 32\nvalue = [0, 0, 0, 31, 1, 0, 0, 0]"] ;
259 -> 261 ;
262 [label="Subflow Fwd Bytes <= -0.186\ngini = 0.32\nsamples = 5\nvalue = [0, 0, 0, 4, 1, 0, 0, 0]"] ;
261 -> 262 ;
263 [label="gini = 0.0\nsamples = 3\nvalue = [0, 0, 0, 3, 0, 0, 0, 0]"] ;
262 -> 263 ;
264 [label="Flow IAT Mean <= -0.348\ngini = 0.5\nsamples = 2\nvalue = [0, 0, 0, 1, 1, 0, 0, 0]"] ;
262 -> 264 ;
265 [label="gini = 0.0\nsamples = 1\nvalue = [0, 0, 0, 1, 0, 0, 0, 0]"] ;
264 -> 265 ;
266 [label="gini = 0.0\nsamples = 1\nvalue = [0, 0, 0, 0, 1, 0, 0, 0]"] ;
264 -> 266 ;
267 [label="gini = 0.0\nsamples = 27\nvalue = [0, 0, 0, 27, 0, 0, 0, 0]"] ;
261 -> 267 ;
268 [label="Fwd Packet Length Mean <= -0.123\ngini = 0.463\nsamples = 11\nvalue = [0, 0, 0, 7, 4, 0, 0, 0]"] ;
258 -> 268 ;
269 [label="gini = 0.0\nsamples = 3\nvalue = [0, 0, 0, 0, 3, 0, 0, 0]"] ;
268 -> 269 ;
270 [label="Flow IAT Min <= -0.135\ngini = 0.219\nsamples = 8\nvalue = [0, 0, 0, 7, 1, 0, 0, 0]"] ;
268 -> 270 ;
271 [label="gini = 0.0\nsamples = 7\nvalue = [0, 0, 0, 7, 0, 0, 0, 0]"] ;
270 -> 271 ;
272 [label="gini = 0.0\nsamples = 1\nvalue = [0, 0, 0, 0, 1, 0, 0, 0]"] ;
270 -> 272 ;
273 [label="gini = 0.0\nsamples = 38\nvalue = [0, 0, 0, 0, 38, 0, 0, 0]"] ;
211 -> 273 ;
274 [label="hour <= 6.5\ngini = 0.139\nsamples = 1286\nvalue = [0, 0, 0, 4, 1190, 0, 0, 92]"] ;
200 -> 274 ;
275 [label="Idle Max <= 0.968\ngini = 0.491\nsamples = 211\nvalue = [0, 0, 0, 0, 120, 0, 0, 91]"] ;
274 -> 275 ;
276 [label="Bwd Header Length <= -0.044\ngini = 0.236\nsamples = 139\nvalue = [0, 0, 0, 0, 120, 0, 0, 19]"] ;
275 -> 276 ;
277 [label="col_5 <= 0.5\ngini = 0.461\nsamples = 25\nvalue = [0, 0, 0, 0, 9, 0, 0, 16]"] ;
276 -> 277 ;
278 [label="Bwd Packets/s <= -0.214\ngini = 0.498\nsamples = 17\nvalue = [0, 0, 0, 0, 9, 0, 0, 8]"] ;
277 -> 278 ;
279 [label="Flow Bytes/s <= -0.068\ngini = 0.375\nsamples = 12\nvalue = [0, 0, 0, 0, 9, 0, 0, 3]"] ;
278 -> 279 ;
280 [label="Fwd Segment Size Avg <= -0.171\ngini = 0.18\nsamples = 10\nvalue = [0, 0, 0, 0, 9, 0, 0, 1]"] ;
279 -> 280 ;
281 [label="Flow Duration <= -0.413\ngini = 0.444\nsamples = 3\nvalue = [0, 0, 0, 0, 2, 0, 0, 1]"] ;
280 -> 281 ;
282 [label="gini = 0.0\nsamples = 1\nvalue = [0, 0, 0, 0, 0, 0, 0, 1]"] ;
281 -> 282 ;
283 [label="gini = 0.0\nsamples = 2\nvalue = [0, 0, 0, 0, 2, 0, 0, 0]"] ;
281 -> 283 ;
284 [label="gini = 0.0\nsamples = 7\nvalue = [0, 0, 0, 0, 7, 0, 0, 0]"] ;
280 -> 284 ;
285 [label="gini = 0.0\nsamples = 2\nvalue = [0, 0, 0, 0, 0, 0, 0, 2]"] ;
279 -> 285 ;
286 [label="gini = 0.0\nsamples = 5\nvalue = [0, 0, 0, 0, 0, 0, 0, 5]"] ;
278 -> 286 ;
287 [label="gini = 0.0\nsamples = 8\nvalue = [0, 0, 0, 0, 0, 0, 0, 8]"] ;
277 -> 287 ;
288 [label="Idle Mean <= 1.033\ngini = 0.051\nsamples = 114\nvalue = [0, 0, 0, 0, 111, 0, 0, 3]"] ;
276 -> 288 ;
289 [label="Idle Mean <= 0.017\ngini = 0.035\nsamples = 113\nvalue = [0, 0, 0, 0, 111, 0, 0, 2]"] ;
288 -> 289 ;
290 [label="col_55 <= 0.5\ngini = 0.298\nsamples = 11\nvalue = [0, 0, 0, 0, 9, 0, 0, 2]"] ;
289 -> 290 ;
291 [label="gini = 0.0\nsamples = 5\nvalue = [0, 0, 0, 0, 5, 0, 0, 0]"] ;
290 -> 291 ;
292 [label="Flow IAT Min <= -0.121\ngini = 0.444\nsamples = 6\nvalue = [0, 0, 0, 0, 4, 0, 0, 2]"] ;
290 -> 292 ;
293 [label="gini = 0.0\nsamples = 2\nvalue = [0, 0, 0, 0, 2, 0, 0, 0]"] ;
292 -> 293 ;
294 [label="FIN Flag Count <= 0.08\ngini = 0.5\nsamples = 4\nvalue = [0, 0, 0, 0, 2, 0, 0, 2]"] ;
292 -> 294 ;
295 [label="gini = 0.0\nsamples = 1\nvalue = [0, 0, 0, 0, 1, 0, 0, 0]"] ;
294 -> 295 ;
296 [label="Src Port <= 44845.0\ngini = 0.444\nsamples = 3\nvalue = [0, 0, 0, 0, 1, 0, 0, 2]"] ;
294 -> 296 ;
297 [label="gini = 0.0\nsamples = 1\nvalue = [0, 0, 0, 0, 1, 0, 0, 0]"] ;
296 -> 297 ;
298 [label="gini = 0.0\nsamples = 2\nvalue = [0, 0, 0, 0, 0, 0, 0, 2]"] ;
296 -> 298 ;
299 [label="gini = 0.0\nsamples = 102\nvalue = [0, 0, 0, 0, 102, 0, 0, 0]"] ;
289 -> 299 ;
300 [label="gini = 0.0\nsamples = 1\nvalue = [0, 0, 0, 0, 0, 0, 0, 1]"] ;
288 -> 300 ;
301 [label="gini = 0.0\nsamples = 72\nvalue = [0, 0, 0, 0, 0, 0, 0, 72]"] ;
275 -> 301 ;
302 [label="FWD Init Win Bytes <= 6.083\ngini = 0.009\nsamples = 1075\nvalue = [0, 0, 0, 4, 1070, 0, 0, 1]"] ;
274 -> 302 ;
303 [label="Idle Min <= 1.168\ngini = 0.007\nsamples = 1074\nvalue = [0, 0, 0, 4, 1070, 0, 0, 0]"] ;
302 -> 303 ;
304 [label="col_53 <= 0.5\ngini = 0.006\nsamples = 1073\nvalue = [0, 0, 0, 3, 1070, 0, 0, 0]"] ;
303 -> 304 ;
305 [label="gini = 0.0\nsamples = 1061\nvalue = [0, 0, 0, 0, 1061, 0, 0, 0]"] ;
304 -> 305 ;
306 [label="Dst Port <= 283.0\ngini = 0.375\nsamples = 12\nvalue = [0, 0, 0, 3, 9, 0, 0, 0]"] ;
304 -> 306 ;
307 [label="gini = 0.0\nsamples = 3\nvalue = [0, 0, 0, 3, 0, 0, 0, 0]"] ;
306 -> 307 ;
308 [label="gini = 0.0\nsamples = 9\nvalue = [0, 0, 0, 0, 9, 0, 0, 0]"] ;
306 -> 308 ;
309 [label="gini = 0.0\nsamples = 1\nvalue = [0, 0, 0, 1, 0, 0, 0, 0]"] ;
303 -> 309 ;
310 [label="gini = 0.0\nsamples = 1\nvalue = [0, 0, 0, 0, 0, 0, 0, 1]"] ;
302 -> 310 ;
311 [label="Idle Mean <= 1.04\ngini = 0.13\nsamples = 103\nvalue = [0, 0, 1, 96, 0, 0, 3, 3]"] ;
199 -> 311 ;
312 [label="Fwd IAT Std <= -0.359\ngini = 0.02\nsamples = 97\nvalue = [0, 0, 1, 96, 0, 0, 0, 0]"] ;
311 -> 312 ;
313 [label="gini = 0.0\nsamples = 1\nvalue = [0, 0, 1, 0, 0, 0, 0, 0]"] ;
312 -> 313 ;
314 [label="gini = 0.0\nsamples = 96\nvalue = [0, 0, 0, 96, 0, 0, 0, 0]"] ;
312 -> 314 ;
315 [label="hour <= 7.5\ngini = 0.5\nsamples = 6\nvalue = [0, 0, 0, 0, 0, 0, 3, 3]"] ;
311 -> 315 ;
316 [label="gini = 0.0\nsamples = 3\nvalue = [0, 0, 0, 0, 0, 0, 3, 0]"] ;
315 -> 316 ;
317 [label="gini = 0.0\nsamples = 3\nvalue = [0, 0, 0, 0, 0, 0, 0, 3]"] ;
315 -> 317 ;
318 [label="col_29 <= 0.5\ngini = 0.112\nsamples = 84\nvalue = [79, 0, 0, 0, 0, 0, 5, 0]"] ;
198 -> 318 ;
319 [label="gini = 0.0\nsamples = 79\nvalue = [79, 0, 0, 0, 0, 0, 0, 0]"] ;
318 -> 319 ;
320 [label="gini = 0.0\nsamples = 5\nvalue = [0, 0, 0, 0, 0, 0, 5, 0]"] ;
318 -> 320 ;
321 [label="hour <= 14.5\ngini = 0.026\nsamples = 2745\nvalue = [36, 0, 2709, 0, 0, 0, 0, 0]"] ;
1 -> 321 ;
322 [label="Flow Duration <= -0.543\ngini = 0.282\nsamples = 212\nvalue = [36, 0, 176, 0, 0, 0, 0, 0]"] ;
321 -> 322 ;
323 [label="gini = 0.0\nsamples = 127\nvalue = [0, 0, 127, 0, 0, 0, 0, 0]"] ;
322 -> 323 ;
324 [label="Flow Bytes/s <= -0.068\ngini = 0.488\nsamples = 85\nvalue = [36, 0, 49, 0, 0, 0, 0, 0]"] ;
322 -> 324 ;
325 [label="gini = 0.0\nsamples = 13\nvalue = [0, 0, 13, 0, 0, 0, 0, 0]"] ;
324 -> 325 ;
326 [label="Src Port <= 51797.5\ngini = 0.5\nsamples = 72\nvalue = [36, 0, 36, 0, 0, 0, 0, 0]"] ;
324 -> 326 ;
327 [label="Fwd IAT Std <= -0.182\ngini = 0.457\nsamples = 48\nvalue = [17, 0, 31, 0, 0, 0, 0, 0]"] ;
326 -> 327 ;
328 [label="Src Port <= 41862.0\ngini = 0.491\nsamples = 30\nvalue = [17, 0, 13, 0, 0, 0, 0, 0]"] ;
327 -> 328 ;
329 [label="Packet Length Std <= -0.51\ngini = 0.363\nsamples = 21\nvalue = [16, 0, 5, 0, 0, 0, 0, 0]"] ;
328 -> 329 ;
330 [label="gini = 0.0\nsamples = 2\nvalue = [0, 0, 2, 0, 0, 0, 0, 0]"] ;
329 -> 330 ;
331 [label="Packet Length Std <= 1.582\ngini = 0.266\nsamples = 19\nvalue = [16, 0, 3, 0, 0, 0, 0, 0]"] ;
329 -> 331 ;
332 [label="Dst Port <= 1269.0\ngini = 0.198\nsamples = 18\nvalue = [16, 0, 2, 0, 0, 0, 0, 0]"] ;
331 -> 332 ;
333 [label="gini = 0.0\nsamples = 1\nvalue = [0, 0, 1, 0, 0, 0, 0, 0]"] ;
332 -> 333 ;
334 [label="Flow IAT Min <= -0.103\ngini = 0.111\nsamples = 17\nvalue = [16, 0, 1, 0, 0, 0, 0, 0]"] ;
332 -> 334 ;
335 [label="gini = 0.0\nsamples = 16\nvalue = [16, 0, 0, 0, 0, 0, 0, 0]"] ;
334 -> 335 ;
336 [label="gini = 0.0\nsamples = 1\nvalue = [0, 0, 1, 0, 0, 0, 0, 0]"] ;
334 -> 336 ;
337 [label="gini = 0.0\nsamples = 1\nvalue = [0, 0, 1, 0, 0, 0, 0, 0]"] ;
331 -> 337 ;
338 [label="col_18 <= 0.5\ngini = 0.198\nsamples = 9\nvalue = [1, 0, 8, 0, 0, 0, 0, 0]"] ;
328 -> 338 ;
339 [label="gini = 0.0\nsamples = 8\nvalue = [0, 0, 8, 0, 0, 0, 0, 0]"] ;
338 -> 339 ;
340 [label="gini = 0.0\nsamples = 1\nvalue = [1, 0, 0, 0, 0, 0, 0, 0]"] ;
338 -> 340 ;
341 [label="gini = 0.0\nsamples = 18\nvalue = [0, 0, 18, 0, 0, 0, 0, 0]"] ;
327 -> 341 ;
342 [label="Src Port <= 58680.5\ngini = 0.33\nsamples = 24\nvalue = [19, 0, 5, 0, 0, 0, 0, 0]"] ;
326 -> 342 ;
343 [label="col_28 <= 0.5\ngini = 0.095\nsamples = 20\nvalue = [19, 0, 1, 0, 0, 0, 0, 0]"] ;
342 -> 343 ;
344 [label="gini = 0.0\nsamples = 19\nvalue = [19, 0, 0, 0, 0, 0, 0, 0]"] ;
343 -> 344 ;
345 [label="gini = 0.0\nsamples = 1\nvalue = [0, 0, 1, 0, 0, 0, 0, 0]"] ;
343 -> 345 ;
346 [label="gini = 0.0\nsamples = 4\nvalue = [0, 0, 4, 0, 0, 0, 0, 0]"] ;
342 -> 346 ;
347 [label="gini = 0.0\nsamples = 2533\nvalue = [0, 0, 2533, 0, 0, 0, 0, 0]"] ;
321 -> 347 ;
348 [label="col_58 <= 0.5\ngini = 0.005\nsamples = 7603\nvalue = [7585, 0, 0, 0, 14, 0, 0, 4]"] ;
0 -> 348 [labeldistance=2.5, labelangle=-45, headlabel="False"] ;
349 [label="gini = 0.0\nsamples = 7584\nvalue = [7584, 0, 0, 0, 0, 0, 0, 0]"] ;
348 -> 349 ;
350 [label="hour <= 5.5\ngini = 0.41\nsamples = 19\nvalue = [1, 0, 0, 0, 14, 0, 0, 4]"] ;
348 -> 350 ;
351 [label="Packet Length Min <= -0.224\ngini = 0.32\nsamples = 5\nvalue = [1, 0, 0, 0, 0, 0, 0, 4]"] ;
350 -> 351 ;
352 [label="gini = 0.0\nsamples = 4\nvalue = [0, 0, 0, 0, 0, 0, 0, 4]"] ;
351 -> 352 ;
353 [label="gini = 0.0\nsamples = 1\nvalue = [1, 0, 0, 0, 0, 0, 0, 0]"] ;
351 -> 353 ;
354 [label="gini = 0.0\nsamples = 14\nvalue = [0, 0, 0, 0, 14, 0, 0, 0]"] ;
350 -> 354 ;
}