digraph Tree {
node [shape=box] ;
0 [label="col_91 <= 0.5\ngini = 0.285\nsamples = 85313\nvalue = [70642, 14671]"] ;
1 [label="Bwd Init Win Bytes <= 8.425\ngini = 0.025\nsamples = 69144\nvalue = [68273, 871]"] ;
0 -> 1 [labeldistance=2.5, labelangle=45, headlabel="True"] ;
2 [label="col_1 <= 1.5\ngini = 0.006\nsamples = 68274\nvalue = [68072, 202]"] ;
1 -> 2 ;
3 [label="FWD Init Win Bytes <= 6.081\ngini = 0.004\nsamples = 68025\nvalue = [67876, 149]"] ;
2 -> 3 ;
4 [label="Fwd Seg Size Min <= 1.152\ngini = 0.003\nsamples = 67742\nvalue = [67631, 111]"] ;
3 -> 4 ;
5 [label="Bwd Packet Length Min <= 1.709\ngini = 0.002\nsamples = 66093\nvalue = [66043, 50]"] ;
4 -> 5 ;
6 [label="Packet Length Min <= 7.353\ngini = 0.001\nsamples = 64742\nvalue = [64725, 17]"] ;
5 -> 6 ;
7 [label="Bwd Init Win Bytes <= 5.237\ngini = 0.0\nsamples = 64619\nvalue = [64607, 12]"] ;
6 -> 7 ;
8 [label="Fwd Seg Size Min <= -1.66\ngini = 0.0\nsamples = 64590\nvalue = [64580, 10]"] ;
7 -> 8 ;
9 [label="Idle Min <= 1427955024658432.0\ngini = 0.036\nsamples = 218\nvalue = [214, 4]"] ;
8 -> 9 ;
10 [label="Flow Duration <= -0.547\ngini = 0.02\nsamples = 195\nvalue = [193, 2]"] ;
9 -> 10 ;
11 [label="Flow Duration <= -0.547\ngini = 0.147\nsamples = 25\nvalue = [23, 2]"] ;
10 -> 11 ;
12 [label="Bwd Packets/s <= 1.104\ngini = 0.083\nsamples = 23\nvalue = [22, 1]"] ;
11 -> 12 ;
13 [label="Flow IAT Mean <= -0.366\ngini = 0.219\nsamples = 8\nvalue = [7, 1]"] ;
12 -> 13 ;
14 [label="hour <= 6.5\ngini = 0.5\nsamples = 2\nvalue = [1, 1]"] ;
13 -> 14 ;
15 [label="gini = 0.0\nsamples = 1\nvalue = [1, 0]"] ;
14 -> 15 ;
16 [label="gini = 0.0\nsamples = 1\nvalue = [0, 1]"] ;
14 -> 16 ;
17 [label="gini = 0.0\nsamples = 6\nvalue = [6, 0]"] ;
13 -> 17 ;
18 [label="gini = 0.0\nsamples = 15\nvalue = [15, 0]"] ;
12 -> 18 ;
19 [label="hour <= 13.0\ngini = 0.5\nsamples = 2\nvalue = [1, 1]"] ;
11 -> 19 ;
20 [label="gini = 0.0\nsamples = 1\nvalue = [0, 1]"] ;
19 -> 20 ;
21 [label="gini = 0.0\nsamples = 1\nvalue = [1, 0]"] ;
19 -> 21 ;
22 [label="gini = 0.0\nsamples = 170\nvalue = [170, 0]"] ;
10 -> 22 ;
23 [label="Fwd IAT Min <= 1.988\ngini = 0.159\nsamples = 23\nvalue = [21, 2]"] ;
9 -> 23 ;
24 [label="gini = 0.0\nsamples = 20\nvalue = [20, 0]"] ;
23 -> 24 ;
25 [label="Idle Max <= 1427905028554752.0\ngini = 0.444\nsamples = 3\nvalue = [1, 2]"] ;
23 -> 25 ;
26 [label="gini = 0.0\nsamples = 1\nvalue = [1, 0]"] ;
25 -> 26 ;
27 [label="gini = 0.0\nsamples = 2\nvalue = [0, 2]"] ;
25 -> 27 ;
28 [label="Bwd Packet Length Min <= 1.664\ngini = 0.0\nsamples = 64372\nvalue = [64366, 6]"] ;
8 -> 28 ;
29 [label="Bwd Bulk Rate Avg <= 0.136\ngini = 0.0\nsamples = 63673\nvalue = [63671, 2]"] ;
28 -> 29 ;
30 [label="gini = 0.0\nsamples = 62042\nvalue = [62042, 0]"] ;
29 -> 30 ;
31 [label="Bwd Bulk Rate Avg <= 0.137\ngini = 0.002\nsamples = 1631\nvalue = [1629, 2]"] ;
29 -> 31 ;
32 [label="gini = 0.0\nsamples = 1\nvalue = [0, 1]"] ;
31 -> 32 ;
33 [label="Idle Max <= 1429160031420416.0\ngini = 0.001\nsamples = 1630\nvalue = [1629, 1]"] ;
31 -> 33 ;
34 [label="Idle Std <= 3715794.0\ngini = 0.117\nsamples = 16\nvalue = [15, 1]"] ;
33 -> 34 ;
35 [label="gini = 0.0\nsamples = 1\nvalue = [0, 1]"] ;
34 -> 35 ;
36 [label="gini = 0.0\nsamples = 15\nvalue = [15, 0]"] ;
34 -> 36 ;
37 [label="gini = 0.0\nsamples = 1614\nvalue = [1614, 0]"] ;
33 -> 37 ;
38 [label="Packet Length Min <= 1.028\ngini = 0.011\nsamples = 699\nvalue = [695, 4]"] ;
28 -> 38 ;
39 [label="col_80 <= 0.5\ngini = 0.003\nsamples = 684\nvalue = [683, 1]"] ;
38 -> 39 ;
40 [label="gini = 0.0\nsamples = 679\nvalue = [679, 0]"] ;
39 -> 40 ;
41 [label="Flow Duration <= -0.546\ngini = 0.32\nsamples = 5\nvalue = [4, 1]"] ;
39 -> 41 ;
42 [label="gini = 0.0\nsamples = 1\nvalue = [0, 1]"] ;
41 -> 42 ;
43 [label="gini = 0.0\nsamples = 4\nvalue = [4, 0]"] ;
41 -> 43 ;
44 [label="Src Port <= 8899.0\ngini = 0.32\nsamples = 15\nvalue = [12, 3]"] ;
38 -> 44 ;
45 [label="Src Port <= 5098.5\ngini = 0.5\nsamples = 6\nvalue = [3, 3]"] ;
44 -> 45 ;
46 [label="gini = 0.0\nsamples = 3\nvalue = [3, 0]"] ;
45 -> 46 ;
47 [label="gini = 0.0\nsamples = 3\nvalue = [0, 3]"] ;
45 -> 47 ;
48 [label="gini = 0.0\nsamples = 9\nvalue = [9, 0]"] ;
44 -> 48 ;
49 [label="Idle Max <= 1444449980776448.0\ngini = 0.128\nsamples = 29\nvalue = [27, 2]"] ;
7 -> 49 ;
50 [label="gini = 0.0\nsamples = 27\nvalue = [27, 0]"] ;
49 -> 50 ;
51 [label="gini = 0.0\nsamples = 2\nvalue = [0, 2]"] ;
49 -> 51 ;
52 [label="Idle Min <= 1427985022320640.0\ngini = 0.078\nsamples = 123\nvalue = [118, 5]"] ;
6 -> 52 ;
53 [label="gini = 0.0\nsamples = 99\nvalue = [99, 0]"] ;
52 -> 53 ;
54 [label="Idle Min <= 1430280011251712.0\ngini = 0.33\nsamples = 24\nvalue = [19, 5]"] ;
52 -> 54 ;
55 [label="gini = 0.0\nsamples = 5\nvalue = [0, 5]"] ;
54 -> 55 ;
56 [label="gini = 0.0\nsamples = 19\nvalue = [19, 0]"] ;
54 -> 56 ;
57 [label="Total Length of Bwd Packet <= -0.029\ngini = 0.048\nsamples = 1351\nvalue = [1318, 33]"] ;
5 -> 57 ;
58 [label="hour <= 12.0\ngini = 0.107\nsamples = 371\nvalue = [350, 21]"] ;
57 -> 58 ;
59 [label="Packet Length Variance <= -0.049\ngini = 0.242\nsamples = 149\nvalue = [128, 21]"] ;
58 -> 59 ;
60 [label="col_80 <= 0.5\ngini = 0.188\nsamples = 143\nvalue = [128, 15]"] ;
59 -> 60 ;
61 [label="Flow Bytes/s <= 0.612\ngini = 0.093\nsamples = 123\nvalue = [117, 6]"] ;
60 -> 61 ;
62 [label="Flow IAT Mean <= -0.366\ngini = 0.079\nsamples = 122\nvalue = [117, 5]"] ;
61 -> 62 ;
63 [label="gini = 0.0\nsamples = 62\nvalue = [62, 0]"] ;
62 -> 63 ;
64 [label="Src Port <= 49294.0\ngini = 0.153\nsamples = 60\nvalue = [55, 5]"] ;
62 -> 64 ;
65 [label="Flow Bytes/s <= -0.064\ngini = 0.401\nsamples = 18\nvalue = [13, 5]"] ;
64 -> 65 ;
66 [label="gini = 0.0\nsamples = 2\nvalue = [0, 2]"] ;
65 -> 66 ;
67 [label="Src Port <= 44308.5\ngini = 0.305\nsamples = 16\nvalue = [13, 3]"] ;
65 -> 67 ;
68 [label="Flow Bytes/s <= -0.063\ngini = 0.133\nsamples = 14\nvalue = [13, 1]"] ;
67 -> 68 ;
69 [label="Flow Duration <= -0.545\ngini = 0.5\nsamples = 2\nvalue = [1, 1]"] ;
68 -> 69 ;
70 [label="gini = 0.0\nsamples = 1\nvalue = [0, 1]"] ;
69 -> 70 ;
71 [label="gini = 0.0\nsamples = 1\nvalue = [1, 0]"] ;
69 -> 71 ;
72 [label="gini = 0.0\nsamples = 12\nvalue = [12, 0]"] ;
68 -> 72 ;
73 [label="gini = 0.0\nsamples = 2\nvalue = [0, 2]"] ;
67 -> 73 ;
74 [label="gini = 0.0\nsamples = 42\nvalue = [42, 0]"] ;
64 -> 74 ;
75 [label="gini = 0.0\nsamples = 1\nvalue = [0, 1]"] ;
61 -> 75 ;
76 [label="Packet Length Min <= 1.007\ngini = 0.495\nsamples = 20\nvalue = [11, 9]"] ;
60 -> 76 ;
77 [label="Packet Length Variance <= -0.055\ngini = 0.337\nsamples = 14\nvalue = [11, 3]"] ;
76 -> 77 ;
78 [label="Bwd Packet Length Min <= 1.738\ngini = 0.444\nsamples = 3\nvalue = [1, 2]"] ;
77 -> 78 ;
79 [label="gini = 0.0\nsamples = 1\nvalue = [1, 0]"] ;
78 -> 79 ;
80 [label="gini = 0.0\nsamples = 2\nvalue = [0, 2]"] ;
78 -> 80 ;
81 [label="Flow Bytes/s <= 0.095\ngini = 0.165\nsamples = 11\nvalue = [10, 1]"] ;
77 -> 81 ;
82 [label="gini = 0.0\nsamples = 9\nvalue = [9, 0]"] ;
81 -> 82 ;
83 [label="Flow IAT Mean <= -0.365\ngini = 0.5\nsamples = 2\nvalue = [1, 1]"] ;
81 -> 83 ;
84 [label="gini = 0.0\nsamples = 1\nvalue = [1, 0]"] ;
83 -> 84 ;
85 [label="gini = 0.0\nsamples = 1\nvalue = [0, 1]"] ;
83 -> 85 ;
86 [label="gini = 0.0\nsamples = 6\nvalue = [0, 6]"] ;
76 -> 86 ;
87 [label="gini = 0.0\nsamples = 6\nvalue = [0, 6]"] ;
59 -> 87 ;
88 [label="gini = 0.0\nsamples = 222\nvalue = [222, 0]"] ;
58 -> 88 ;
89 [label="Fwd Packet Length Mean <= -0.173\ngini = 0.024\nsamples = 980\nvalue = [968, 12]"] ;
57 -> 89 ;
90 [label="hour <= 12.0\ngini = 0.231\nsamples = 45\nvalue = [39, 6]"] ;
89 -> 90 ;
91 [label="Packet Length Variance <= -0.019\ngini = 0.375\nsamples = 8\nvalue = [2, 6]"] ;
90 -> 91 ;
92 [label="gini = 0.0\nsamples = 5\nvalue = [0, 5]"] ;
91 -> 92 ;
93 [label="Src Port <= 13129.0\ngini = 0.444\nsamples = 3\nvalue = [2, 1]"] ;
91 -> 93 ;
94 [label="gini = 0.0\nsamples = 1\nvalue = [1, 0]"] ;
93 -> 94 ;
95 [label="Src Port <= 24144.5\ngini = 0.5\nsamples = 2\nvalue = [1, 1]"] ;
93 -> 95 ;
96 [label="gini = 0.0\nsamples = 1\nvalue = [0, 1]"] ;
95 -> 96 ;
97 [label="gini = 0.0\nsamples = 1\nvalue = [1, 0]"] ;
95 -> 97 ;
98 [label="gini = 0.0\nsamples = 37\nvalue = [37, 0]"] ;
90 -> 98 ;
99 [label="Packet Length Variance <= -0.019\ngini = 0.013\nsamples = 935\nvalue = [929, 6]"] ;
89 -> 99 ;
100 [label="Src Port <= 6146.5\ngini = 0.003\nsamples = 785\nvalue = [784, 1]"] ;
99 -> 100 ;
101 [label="Src Port <= 6086.0\ngini = 0.034\nsamples = 58\nvalue = [57, 1]"] ;
100 -> 101 ;
102 [label="gini = 0.0\nsamples = 57\nvalue = [57, 0]"] ;
101 -> 102 ;
103 [label="gini = 0.0\nsamples = 1\nvalue = [0, 1]"] ;
101 -> 103 ;
104 [label="gini = 0.0\nsamples = 727\nvalue = [727, 0]"] ;
100 -> 104 ;
105 [label="Bwd Packets/s <= -0.093\ngini = 0.064\nsamples = 150\nvalue = [145, 5]"] ;
99 -> 105 ;
106 [label="Packet Length Variance <= -0.019\ngini = 0.027\nsamples = 147\nvalue = [145, 2]"] ;
105 -> 106 ;
107 [label="hour <= 12.0\ngini = 0.219\nsamples = 16\nvalue = [14, 2]"] ;
106 -> 107 ;
108 [label="Src Port <= 43125.0\ngini = 0.444\nsamples = 6\nvalue = [4, 2]"] ;
107 -> 108 ;
109 [label="gini = 0.0\nsamples = 2\nvalue = [0, 2]"] ;
108 -> 109 ;
110 [label="gini = 0.0\nsamples = 4\nvalue = [4, 0]"] ;
108 -> 110 ;
111 [label="gini = 0.0\nsamples = 10\nvalue = [10, 0]"] ;
107 -> 111 ;
112 [label="gini = 0.0\nsamples = 131\nvalue = [131, 0]"] ;
106 -> 112 ;
113 [label="gini = 0.0\nsamples = 3\nvalue = [0, 3]"] ;
105 -> 113 ;
114 [label="Idle Min <= 1427949991493632.0\ngini = 0.071\nsamples = 1649\nvalue = [1588, 61]"] ;
4 -> 114 ;
115 [label="Flow IAT Min <= 1.585\ngini = 0.03\nsamples = 1585\nvalue = [1561, 24]"] ;
114 -> 115 ;
116 [label="Flow Duration <= -0.545\ngini = 0.02\nsamples = 1576\nvalue = [1560, 16]"] ;
115 -> 116 ;
117 [label="Flow IAT Min <= -0.152\ngini = 0.076\nsamples = 355\nvalue = [341, 14]"] ;
116 -> 117 ;
118 [label="Flow IAT Mean <= -0.362\ngini = 0.061\nsamples = 352\nvalue = [341, 11]"] ;
117 -> 118 ;
119 [label="gini = 0.0\nsamples = 263\nvalue = [263, 0]"] ;
118 -> 119 ;
120 [label="hour <= 12.0\ngini = 0.217\nsamples = 89\nvalue = [78, 11]"] ;
118 -> 120 ;
121 [label="hour <= 10.5\ngini = 0.437\nsamples = 31\nvalue = [21, 10]"] ;
120 -> 121 ;
122 [label="gini = 0.0\nsamples = 14\nvalue = [14, 0]"] ;
121 -> 122 ;
123 [label="Src Port <= 57209.0\ngini = 0.484\nsamples = 17\nvalue = [7, 10]"] ;
121 -> 123 ;
124 [label="Src Port <= 47576.5\ngini = 0.444\nsamples = 15\nvalue = [5, 10]"] ;
123 -> 124 ;
125 [label="Flow IAT Mean <= -0.362\ngini = 0.496\nsamples = 11\nvalue = [5, 6]"] ;
124 -> 125 ;
126 [label="gini = 0.0\nsamples = 3\nvalue = [3, 0]"] ;
125 -> 126 ;
127 [label="Flow IAT Mean <= -0.362\ngini = 0.375\nsamples = 8\nvalue = [2, 6]"] ;
125 -> 127 ;
128 [label="gini = 0.0\nsamples = 5\nvalue = [0, 5]"] ;
127 -> 128 ;
129 [label="Bwd Init Win Bytes <= -0.181\ngini = 0.444\nsamples = 3\nvalue = [2, 1]"] ;
127 -> 129 ;
130 [label="gini = 0.0\nsamples = 1\nvalue = [0, 1]"] ;
129 -> 130 ;
131 [label="gini = 0.0\nsamples = 2\nvalue = [2, 0]"] ;
129 -> 131 ;
132 [label="gini = 0.0\nsamples = 4\nvalue = [0, 4]"] ;
124 -> 132 ;
133 [label="gini = 0.0\nsamples = 2\nvalue = [2, 0]"] ;
123 -> 133 ;
134 [label="Src Port <= 19009.0\ngini = 0.034\nsamples = 58\nvalue = [57, 1]"] ;
120 -> 134 ;
135 [label="gini = 0.0\nsamples = 1\nvalue = [0, 1]"] ;
134 -> 135 ;
136 [label="gini = 0.0\nsamples = 57\nvalue = [57, 0]"] ;
134 -> 136 ;
137 [label="gini = 0.0\nsamples = 3\nvalue = [0, 3]"] ;
117 -> 137 ;
138 [label="col_30 <= 0.5\ngini = 0.003\nsamples = 1221\nvalue = [1219, 2]"] ;
116 -> 138 ;
139 [label="FWD Init Win Bytes <= -0.512\ngini = 0.002\nsamples = 1218\nvalue = [1217, 1]"] ;
138 -> 139 ;
140 [label="FWD Init Win Bytes <= -0.512\ngini = 0.014\nsamples = 144\nvalue = [143, 1]"] ;
139 -> 140 ;
141 [label="gini = 0.0\nsamples = 141\nvalue = [141, 0]"] ;
140 -> 141 ;
142 [label="hour <= 12.0\ngini = 0.444\nsamples = 3\nvalue = [2, 1]"] ;
140 -> 142 ;
143 [label="gini = 0.0\nsamples = 1\nvalue = [0, 1]"] ;
142 -> 143 ;
144 [label="gini = 0.0\nsamples = 2\nvalue = [2, 0]"] ;
142 -> 144 ;
145 [label="gini = 0.0\nsamples = 1074\nvalue = [1074, 0]"] ;
139 -> 145 ;
146 [label="Idle Std <= 237984003653632.0\ngini = 0.444\nsamples = 3\nvalue = [2, 1]"] ;
138 -> 146 ;
147 [label="gini = 0.0\nsamples = 1\nvalue = [0, 1]"] ;
146 -> 147 ;
148 [label="gini = 0.0\nsamples = 2\nvalue = [2, 0]"] ;
146 -> 148 ;
149 [label="hour <= 13.0\ngini = 0.198\nsamples = 9\nvalue = [1, 8]"] ;
115 -> 149 ;
150 [label="gini = 0.0\nsamples = 8\nvalue = [0, 8]"] ;
149 -> 150 ;
151 [label="gini = 0.0\nsamples = 1\nvalue = [1, 0]"] ;
149 -> 151 ;
152 [label="hour <= 10.5\ngini = 0.488\nsamples = 64\nvalue = [27, 37]"] ;
114 -> 152 ;
153 [label="gini = 0.0\nsamples = 18\nvalue = [18, 0]"] ;
152 -> 153 ;
154 [label="Idle Min <= 1428995010723840.0\ngini = 0.315\nsamples = 46\nvalue = [9, 37]"] ;
152 -> 154 ;
155 [label="gini = 0.0\nsamples = 36\nvalue = [0, 36]"] ;
154 -> 155 ;
156 [label="Bwd Bulk Rate Avg <= 0.031\ngini = 0.18\nsamples = 10\nvalue = [9, 1]"] ;
154 -> 156 ;
157 [label="gini = 0.0\nsamples = 9\nvalue = [9, 0]"] ;
156 -> 157 ;
158 [label="gini = 0.0\nsamples = 1\nvalue = [0, 1]"] ;
156 -> 158 ;
159 [label="col_45 <= 0.5\ngini = 0.232\nsamples = 283\nvalue = [245, 38]"] ;
3 -> 159 ;
160 [label="FIN Flag Count <= 1.878\ngini = 0.089\nsamples = 257\nvalue = [245, 12]"] ;
159 -> 160 ;
161 [label="Fwd PSH Flags <= 1.337\ngini = 0.024\nsamples = 248\nvalue = [245, 3]"] ;
160 -> 161 ;
162 [label="gini = 0.0\nsamples = 244\nvalue = [244, 0]"] ;
161 -> 162 ;
163 [label="FIN Flag Count <= 0.08\ngini = 0.375\nsamples = 4\nvalue = [1, 3]"] ;
161 -> 163 ;
164 [label="gini = 0.0\nsamples = 3\nvalue = [0, 3]"] ;
163 -> 164 ;
165 [label="gini = 0.0\nsamples = 1\nvalue = [1, 0]"] ;
163 -> 165 ;
166 [label="gini = 0.0\nsamples = 9\nvalue = [0, 9]"] ;
160 -> 166 ;
167 [label="gini = 0.0\nsamples = 26\nvalue = [0, 26]"] ;
159 -> 167 ;
168 [label="Idle Std <= 826373518131200.0\ngini = 0.335\nsamples = 249\nvalue = [196, 53]"] ;
2 -> 168 ;
169 [label="Flow IAT Min <= 6.175\ngini = 0.155\nsamples = 213\nvalue = [195, 18]"] ;
168 -> 169 ;
170 [label="Flow IAT Mean <= -0.366\ngini = 0.097\nsamples = 195\nvalue = [185, 10]"] ;
169 -> 170 ;
171 [label="hour <= 13.5\ngini = 0.426\nsamples = 13\nvalue = [9, 4]"] ;
170 -> 171 ;
172 [label="hour <= 10.0\ngini = 0.494\nsamples = 9\nvalue = [5, 4]"] ;
171 -> 172 ;
173 [label="gini = 0.0\nsamples = 3\nvalue = [3, 0]"] ;
172 -> 173 ;
174 [label="Flow IAT Min <= -0.16\ngini = 0.444\nsamples = 6\nvalue = [2, 4]"] ;
172 -> 174 ;
175 [label="gini = 0.0\nsamples = 2\nvalue = [0, 2]"] ;
174 -> 175 ;
176 [label="Fwd IAT Min <= -0.236\ngini = 0.5\nsamples = 4\nvalue = [2, 2]"] ;
174 -> 176 ;
177 [label="gini = 0.0\nsamples = 1\nvalue = [1, 0]"] ;
176 -> 177 ;
178 [label="hour <= 12.0\ngini = 0.444\nsamples = 3\nvalue = [1, 2]"] ;
176 -> 178 ;
179 [label="gini = 0.0\nsamples = 1\nvalue = [0, 1]"] ;
178 -> 179 ;
180 [label="gini = 0.5\nsamples = 2\nvalue = [1, 1]"] ;
178 -> 180 ;
181 [label="gini = 0.0\nsamples = 4\nvalue = [4, 0]"] ;
171 -> 181 ;
182 [label="hour <= 10.5\ngini = 0.064\nsamples = 182\nvalue = [176, 6]"] ;
170 -> 182 ;
183 [label="gini = 0.0\nsamples = 103\nvalue = [103, 0]"] ;
182 -> 183 ;
184 [label="Idle Max <= 1429154998255616.0\ngini = 0.14\nsamples = 79\nvalue = [73, 6]"] ;
182 -> 184 ;
185 [label="Idle Max <= 1427955024658432.0\ngini = 0.245\nsamples = 42\nvalue = [36, 6]"] ;
184 -> 185 ;
186 [label="Flow IAT Mean <= -0.366\ngini = 0.053\nsamples = 37\nvalue = [36, 1]"] ;
185 -> 186 ;
187 [label="Fwd IAT Min <= -0.236\ngini = 0.278\nsamples = 6\nvalue = [5, 1]"] ;
186 -> 187 ;
188 [label="gini = 0.0\nsamples = 5\nvalue = [5, 0]"] ;
187 -> 188 ;
189 [label="gini = 0.0\nsamples = 1\nvalue = [0, 1]"] ;
187 -> 189 ;
190 [label="gini = 0.0\nsamples = 31\nvalue = [31, 0]"] ;
186 -> 190 ;
191 [label="gini = 0.0\nsamples = 5\nvalue = [0, 5]"] ;
185 -> 191 ;
192 [label="gini = 0.0\nsamples = 37\nvalue = [37, 0]"] ;
184 -> 192 ;
193 [label="hour <= 9.0\ngini = 0.494\nsamples = 18\nvalue = [10, 8]"] ;
169 -> 193 ;
194 [label="gini = 0.0\nsamples = 8\nvalue = [0, 8]"] ;
193 -> 194 ;
195 [label="gini = 0.0\nsamples = 10\nvalue = [10, 0]"] ;
193 -> 195 ;
196 [label="Flow IAT Std <= 2.627\ngini = 0.054\nsamples = 36\nvalue = [1, 35]"] ;
168 -> 196 ;
197 [label="gini = 0.0\nsamples = 35\nvalue = [0, 35]"] ;
196 -> 197 ;
198 [label="gini = 0.0\nsamples = 1\nvalue = [1, 0]"] ;
196 -> 198 ;
199 [label="hour <= 13.0\ngini = 0.355\nsamples = 870\nvalue = [201, 669]"] ;
1 -> 199 ;
200 [label="col_29 <= 0.5\ngini = 0.009\nsamples = 672\nvalue = [3, 669]"] ;
199 -> 200 ;
201 [label="gini = 0.0\nsamples = 3\nvalue = [3, 0]"] ;
200 -> 201 ;
202 [label="gini = 0.0\nsamples = 669\nvalue = [0, 669]"] ;
200 -> 202 ;
203 [label="gini = 0.0\nsamples = 198\nvalue = [198, 0]"] ;
199 -> 203 ;
204 [label="col_49 <= 0.5\ngini = 0.25\nsamples = 16169\nvalue = [2369, 13800]"] ;
0 -> 204 [labeldistance=2.5, labelangle=-45, headlabel="False"] ;
205 [label="col_24 <= 0.5\ngini = 0.072\nsamples = 14295\nvalue = [537, 13758]"] ;
204 -> 205 ;
206 [label="Idle Max <= 1427985022320640.0\ngini = 0.057\nsamples = 547\nvalue = [531, 16]"] ;
205 -> 206 ;
207 [label="Flow IAT Min <= 3.338\ngini = 0.023\nsamples = 520\nvalue = [514, 6]"] ;
206 -> 207 ;
208 [label="Flow IAT Min <= -0.156\ngini = 0.019\nsamples = 519\nvalue = [514, 5]"] ;
207 -> 208 ;
209 [label="Flow IAT Min <= -0.156\ngini = 0.004\nsamples = 466\nvalue = [465, 1]"] ;
208 -> 209 ;
210 [label="gini = 0.0\nsamples = 426\nvalue = [426, 0]"] ;
209 -> 210 ;
211 [label="Flow IAT Min <= -0.156\ngini = 0.049\nsamples = 40\nvalue = [39, 1]"] ;
209 -> 211 ;
212 [label="Bwd Init Win Bytes <= -0.186\ngini = 0.5\nsamples = 2\nvalue = [1, 1]"] ;
211 -> 212 ;
213 [label="gini = 0.0\nsamples = 1\nvalue = [1, 0]"] ;
212 -> 213 ;
214 [label="gini = 0.0\nsamples = 1\nvalue = [0, 1]"] ;
212 -> 214 ;
215 [label="gini = 0.0\nsamples = 38\nvalue = [38, 0]"] ;
211 -> 215 ;
216 [label="hour <= 12.0\ngini = 0.14\nsamples = 53\nvalue = [49, 4]"] ;
208 -> 216 ;
217 [label="Bwd Init Win Bytes <= -0.187\ngini = 0.426\nsamples = 13\nvalue = [9, 4]"] ;
216 -> 217 ;
218 [label="gini = 0.0\nsamples = 7\nvalue = [7, 0]"] ;
217 -> 218 ;
219 [label="Bwd Init Win Bytes <= -0.176\ngini = 0.444\nsamples = 6\nvalue = [2, 4]"] ;
217 -> 219 ;
220 [label="gini = 0.0\nsamples = 4\nvalue = [0, 4]"] ;
219 -> 220 ;
221 [label="gini = 0.0\nsamples = 2\nvalue = [2, 0]"] ;
219 -> 221 ;
222 [label="gini = 0.0\nsamples = 40\nvalue = [40, 0]"] ;
216 -> 222 ;
223 [label="gini = 0.0\nsamples = 1\nvalue = [0, 1]"] ;
207 -> 223 ;
224 [label="Idle Max <= 1428995010723840.0\ngini = 0.466\nsamples = 27\nvalue = [17, 10]"] ;
206 -> 224 ;
225 [label="gini = 0.0\nsamples = 10\nvalue = [0, 10]"] ;
224 -> 225 ;
226 [label="gini = 0.0\nsamples = 17\nvalue = [17, 0]"] ;
224 -> 226 ;
227 [label="col_29 <= 0.5\ngini = 0.001\nsamples = 13748\nvalue = [6, 13742]"] ;
205 -> 227 ;
228 [label="gini = 0.0\nsamples = 13718\nvalue = [0, 13718]"] ;
227 -> 228 ;
229 [label="hour <= 13.0\ngini = 0.32\nsamples = 30\nvalue = [6, 24]"] ;
227 -> 229 ;
230 [label="gini = 0.0\nsamples = 24\nvalue = [0, 24]"] ;
229 -> 230 ;
231 [label="gini = 0.0\nsamples = 6\nvalue = [6, 0]"] ;
229 -> 231 ;
232 [label="col_96 <= 0.5\ngini = 0.044\nsamples = 1874\nvalue = [1832, 42]"] ;
204 -> 232 ;
233 [label="gini = 0.0\nsamples = 42\nvalue = [0, 42]"] ;
232 -> 233 ;
234 [label="gini = 0.0\nsamples = 1832\nvalue = [1832, 0]"] ;
232 -> 234 ;
}