digraph Tree {
node [shape=box] ;
0 [label="col_76 <= 0.5\ngini = 0.649\nsamples = 14660\nvalue = [7995, 158, 2746, 354, 1557, 141, 888, 821]"] ;
1 [label="hour <= 13.5\ngini = 0.765\nsamples = 7057\nvalue = [410, 158, 2746, 354, 1543, 141, 888, 817]"] ;
0 -> 1 [labeldistance=2.5, labelangle=45, headlabel="True"] ;
2 [label="hour <= 3.5\ngini = 0.777\nsamples = 4312\nvalue = [374, 158, 37, 354, 1543, 141, 888, 817]"] ;
1 -> 2 ;
3 [label="Fwd Seg Size Min <= 1.996\ngini = 0.676\nsamples = 1738\nvalue = [216, 121, 15, 7, 36, 0, 752, 591]"] ;
2 -> 3 ;
4 [label="Idle Max <= 1432400047374336.0\ngini = 0.56\nsamples = 1180\nvalue = [129, 121, 15, 7, 36, 0, 752, 120]"] ;
3 -> 4 ;
5 [label="hour <= 2.5\ngini = 0.182\nsamples = 786\nvalue = [16, 9, 2, 0, 5, 0, 709, 45]"] ;
4 -> 5 ;
6 [label="col_95 <= 0.5\ngini = 0.12\nsamples = 754\nvalue = [16, 8, 2, 0, 5, 0, 707, 16]"] ;
5 -> 6 ;
7 [label="col_29 <= 0.5\ngini = 0.065\nsamples = 729\nvalue = [6, 8, 2, 0, 5, 0, 705, 3]"] ;
6 -> 7 ;
8 [label="RST Flag Count <= 4.267\ngini = 0.02\nsamples = 712\nvalue = [1, 1, 2, 0, 0, 0, 705, 3]"] ;
7 -> 8 ;
9 [label="Flow IAT Min <= 8.841\ngini = 0.014\nsamples = 710\nvalue = [1, 1, 2, 0, 0, 0, 705, 1]"] ;
8 -> 9 ;
10 [label="col_42 <= 0.5\ngini = 0.006\nsamples = 706\nvalue = [0, 1, 0, 0, 0, 0, 704, 1]"] ;
9 -> 10 ;
11 [label="Flow IAT Min <= 4.427\ngini = 0.003\nsamples = 705\nvalue = [0, 1, 0, 0, 0, 0, 704, 0]"] ;
10 -> 11 ;
12 [label="gini = 0.0\nsamples = 671\nvalue = [0, 0, 0, 0, 0, 0, 671, 0]"] ;
11 -> 12 ;
13 [label="Idle Min <= 31994169.0\ngini = 0.057\nsamples = 34\nvalue = [0, 1, 0, 0, 0, 0, 33, 0]"] ;
11 -> 13 ;
14 [label="gini = 0.0\nsamples = 1\nvalue = [0, 1, 0, 0, 0, 0, 0, 0]"] ;
13 -> 14 ;
15 [label="gini = 0.0\nsamples = 33\nvalue = [0, 0, 0, 0, 0, 0, 33, 0]"] ;
13 -> 15 ;
16 [label="gini = 0.0\nsamples = 1\nvalue = [0, 0, 0, 0, 0, 0, 0, 1]"] ;
10 -> 16 ;
17 [label="Idle Max <= 87522886.0\ngini = 0.625\nsamples = 4\nvalue = [1, 0, 2, 0, 0, 0, 1, 0]"] ;
9 -> 17 ;
18 [label="gini = 0.0\nsamples = 2\nvalue = [0, 0, 2, 0, 0, 0, 0, 0]"] ;
17 -> 18 ;
19 [label="col_24 <= 1.0\ngini = 0.5\nsamples = 2\nvalue = [1, 0, 0, 0, 0, 0, 1, 0]"] ;
17 -> 19 ;
20 [label="gini = 0.0\nsamples = 1\nvalue = [1, 0, 0, 0, 0, 0, 0, 0]"] ;
19 -> 20 ;
21 [label="gini = 0.0\nsamples = 1\nvalue = [0, 0, 0, 0, 0, 0, 1, 0]"] ;
19 -> 21 ;
22 [label="gini = 0.0\nsamples = 2\nvalue = [0, 0, 0, 0, 0, 0, 0, 2]"] ;
8 -> 22 ;
23 [label="hour <= 1.5\ngini = 0.657\nsamples = 17\nvalue = [5, 7, 0, 0, 5, 0, 0, 0]"] ;
7 -> 23 ;
24 [label="Dst Port <= 4722.0\ngini = 0.469\nsamples = 8\nvalue = [3, 0, 0, 0, 5, 0, 0, 0]"] ;
23 -> 24 ;
25 [label="gini = 0.0\nsamples = 3\nvalue = [3, 0, 0, 0, 0, 0, 0, 0]"] ;
24 -> 25 ;
26 [label="gini = 0.0\nsamples = 5\nvalue = [0, 0, 0, 0, 5, 0, 0, 0]"] ;
24 -> 26 ;
27 [label="Fwd IAT Mean <= -0.358\ngini = 0.346\nsamples = 9\nvalue = [2, 7, 0, 0, 0, 0, 0, 0]"] ;
23 -> 27 ;
28 [label="gini = 0.0\nsamples = 7\nvalue = [0, 7, 0, 0, 0, 0, 0, 0]"] ;
27 -> 28 ;
29 [label="gini = 0.0\nsamples = 2\nvalue = [2, 0, 0, 0, 0, 0, 0, 0]"] ;
27 -> 29 ;
30 [label="hour <= 1.5\ngini = 0.563\nsamples = 25\nvalue = [10, 0, 0, 0, 0, 0, 2, 13]"] ;
6 -> 30 ;
31 [label="Average Packet Size <= -0.427\ngini = 0.278\nsamples = 12\nvalue = [10, 0, 0, 0, 0, 0, 2, 0]"] ;
30 -> 31 ;
32 [label="gini = 0.0\nsamples = 2\nvalue = [0, 0, 0, 0, 0, 0, 2, 0]"] ;
31 -> 32 ;
33 [label="gini = 0.0\nsamples = 10\nvalue = [10, 0, 0, 0, 0, 0, 0, 0]"] ;
31 -> 33 ;
34 [label="gini = 0.0\nsamples = 13\nvalue = [0, 0, 0, 0, 0, 0, 0, 13]"] ;
30 -> 34 ;
35 [label="col_91 <= 0.5\ngini = 0.174\nsamples = 32\nvalue = [0, 1, 0, 0, 0, 0, 2, 29]"] ;
5 -> 35 ;
36 [label="col_24 <= 0.5\ngini = 0.444\nsamples = 3\nvalue = [0, 1, 0, 0, 0, 0, 2, 0]"] ;
35 -> 36 ;
37 [label="gini = 0.0\nsamples = 1\nvalue = [0, 1, 0, 0, 0, 0, 0, 0]"] ;
36 -> 37 ;
38 [label="gini = 0.0\nsamples = 2\nvalue = [0, 0, 0, 0, 0, 0, 2, 0]"] ;
36 -> 38 ;
39 [label="gini = 0.0\nsamples = 29\nvalue = [0, 0, 0, 0, 0, 0, 0, 29]"] ;
35 -> 39 ;
40 [label="Idle Max <= 1437884989046784.0\ngini = 0.781\nsamples = 394\nvalue = [113, 112, 13, 7, 31, 0, 43, 75]"] ;
4 -> 40 ;
41 [label="hour <= 1.5\ngini = 0.767\nsamples = 219\nvalue = [51, 0, 13, 7, 31, 0, 42, 75]"] ;
40 -> 41 ;
42 [label="col_18 <= 0.5\ngini = 0.568\nsamples = 88\nvalue = [50, 0, 3, 7, 28, 0, 0, 0]"] ;
41 -> 42 ;
43 [label="col_42 <= 0.5\ngini = 0.196\nsamples = 56\nvalue = [50, 0, 2, 0, 4, 0, 0, 0]"] ;
42 -> 43 ;
44 [label="Src Port <= 57994.5\ngini = 0.074\nsamples = 52\nvalue = [50, 0, 2, 0, 0, 0, 0, 0]"] ;
43 -> 44 ;
45 [label="gini = 0.0\nsamples = 50\nvalue = [50, 0, 0, 0, 0, 0, 0, 0]"] ;
44 -> 45 ;
46 [label="gini = 0.0\nsamples = 2\nvalue = [0, 0, 2, 0, 0, 0, 0, 0]"] ;
44 -> 46 ;
47 [label="gini = 0.0\nsamples = 4\nvalue = [0, 0, 0, 0, 4, 0, 0, 0]"] ;
43 -> 47 ;
48 [label="Idle Max <= 1436980026015744.0\ngini = 0.389\nsamples = 32\nvalue = [0, 0, 1, 7, 24, 0, 0, 0]"] ;
42 -> 48 ;
49 [label="Fwd Packet Length Mean <= 4.154\ngini = 0.5\nsamples = 14\nvalue = [0, 0, 0, 7, 7, 0, 0, 0]"] ;
48 -> 49 ;
50 [label="ACK Flag Count <= 3.229\ngini = 0.219\nsamples = 8\nvalue = [0, 0, 0, 1, 7, 0, 0, 0]"] ;
49 -> 50 ;
51 [label="gini = 0.0\nsamples = 7\nvalue = [0, 0, 0, 0, 7, 0, 0, 0]"] ;
50 -> 51 ;
52 [label="gini = 0.0\nsamples = 1\nvalue = [0, 0, 0, 1, 0, 0, 0, 0]"] ;
50 -> 52 ;
53 [label="gini = 0.0\nsamples = 6\nvalue = [0, 0, 0, 6, 0, 0, 0, 0]"] ;
49 -> 53 ;
54 [label="Src Port <= 35625.0\ngini = 0.105\nsamples = 18\nvalue = [0, 0, 1, 0, 17, 0, 0, 0]"] ;
48 -> 54 ;
55 [label="gini = 0.0\nsamples = 1\nvalue = [0, 0, 1, 0, 0, 0, 0, 0]"] ;
54 -> 55 ;
56 [label="gini = 0.0\nsamples = 17\nvalue = [0, 0, 0, 0, 17, 0, 0, 0]"] ;
54 -> 56 ;
57 [label="Idle Max <= 1434819993010176.0\ngini = 0.563\nsamples = 131\nvalue = [1, 0, 10, 0, 3, 0, 42, 75]"] ;
41 -> 57 ;
58 [label="gini = 0.0\nsamples = 75\nvalue = [0, 0, 0, 0, 0, 0, 0, 75]"] ;
57 -> 58 ;
59 [label="Idle Max <= 1437675005411328.0\ngini = 0.402\nsamples = 56\nvalue = [1, 0, 10, 0, 3, 0, 42, 0]"] ;
57 -> 59 ;
60 [label="Fwd IAT Std <= 0.051\ngini = 0.439\nsamples = 14\nvalue = [1, 0, 10, 0, 3, 0, 0, 0]"] ;
59 -> 60 ;
61 [label="Fwd Segment Size Avg <= 2.977\ngini = 0.375\nsamples = 4\nvalue = [1, 0, 0, 0, 3, 0, 0, 0]"] ;
60 -> 61 ;
62 [label="gini = 0.0\nsamples = 1\nvalue = [1, 0, 0, 0, 0, 0, 0, 0]"] ;
61 -> 62 ;
63 [label="gini = 0.0\nsamples = 3\nvalue = [0, 0, 0, 0, 3, 0, 0, 0]"] ;
61 -> 63 ;
64 [label="gini = 0.0\nsamples = 10\nvalue = [0, 0, 10, 0, 0, 0, 0, 0]"] ;
60 -> 64 ;
65 [label="gini = 0.0\nsamples = 42\nvalue = [0, 0, 0, 0, 0, 0, 42, 0]"] ;
59 -> 65 ;
66 [label="Subflow Bwd Bytes <= 5.581\ngini = 0.465\nsamples = 175\nvalue = [62, 112, 0, 0, 0, 0, 1, 0]"] ;
40 -> 66 ;
67 [label="Src Port <= 58723.0\ngini = 0.247\nsamples = 126\nvalue = [17, 108, 0, 0, 0, 0, 1, 0]"] ;
66 -> 67 ;
68 [label="Bwd IAT Min <= -0.16\ngini = 0.156\nsamples = 118\nvalue = [9, 108, 0, 0, 0, 0, 1, 0]"] ;
67 -> 68 ;
69 [label="Dst Port <= 44863.0\ngini = 0.104\nsamples = 110\nvalue = [5, 104, 0, 0, 0, 0, 1, 0]"] ;
68 -> 69 ;
70 [label="Subflow Bwd Bytes <= 5.22\ngini = 0.071\nsamples = 108\nvalue = [4, 104, 0, 0, 0, 0, 0, 0]"] ;
69 -> 70 ;
71 [label="Fwd IAT Max <= -0.464\ngini = 0.038\nsamples = 103\nvalue = [2, 101, 0, 0, 0, 0, 0, 0]"] ;
70 -> 71 ;
72 [label="Packet Length Std <= 1.794\ngini = 0.444\nsamples = 3\nvalue = [1, 2, 0, 0, 0, 0, 0, 0]"] ;
71 -> 72 ;
73 [label="gini = 0.0\nsamples = 2\nvalue = [0, 2, 0, 0, 0, 0, 0, 0]"] ;
72 -> 73 ;
74 [label="gini = 0.0\nsamples = 1\nvalue = [1, 0, 0, 0, 0, 0, 0, 0]"] ;
72 -> 74 ;
75 [label="Bwd IAT Min <= -0.178\ngini = 0.02\nsamples = 100\nvalue = [1, 99, 0, 0, 0, 0, 0, 0]"] ;
71 -> 75 ;
76 [label="gini = 0.0\nsamples = 96\nvalue = [0, 96, 0, 0, 0, 0, 0, 0]"] ;
75 -> 76 ;
77 [label="Bwd Bulk Rate Avg <= -0.042\ngini = 0.375\nsamples = 4\nvalue = [1, 3, 0, 0, 0, 0, 0, 0]"] ;
75 -> 77 ;
78 [label="gini = 0.0\nsamples = 1\nvalue = [1, 0, 0, 0, 0, 0, 0, 0]"] ;
77 -> 78 ;
79 [label="gini = 0.0\nsamples = 3\nvalue = [0, 3, 0, 0, 0, 0, 0, 0]"] ;
77 -> 79 ;
80 [label="Idle Min <= 1456289997651968.0\ngini = 0.48\nsamples = 5\nvalue = [2, 3, 0, 0, 0, 0, 0, 0]"] ;
70 -> 80 ;
81 [label="gini = 0.0\nsamples = 3\nvalue = [0, 3, 0, 0, 0, 0, 0, 0]"] ;
80 -> 81 ;
82 [label="gini = 0.0\nsamples = 2\nvalue = [2, 0, 0, 0, 0, 0, 0, 0]"] ;
80 -> 82 ;
83 [label="Bwd Bulk Rate Avg <= -0.032\ngini = 0.5\nsamples = 2\nvalue = [1, 0, 0, 0, 0, 0, 1, 0]"] ;
69 -> 83 ;
84 [label="gini = 0.0\nsamples = 1\nvalue = [1, 0, 0, 0, 0, 0, 0, 0]"] ;
83 -> 84 ;
85 [label="gini = 0.0\nsamples = 1\nvalue = [0, 0, 0, 0, 0, 0, 1, 0]"] ;
83 -> 85 ;
86 [label="Src Port <= 51650.0\ngini = 0.5\nsamples = 8\nvalue = [4, 4, 0, 0, 0, 0, 0, 0]"] ;
68 -> 86 ;
87 [label="gini = 0.0\nsamples = 4\nvalue = [0, 4, 0, 0, 0, 0, 0, 0]"] ;
86 -> 87 ;
88 [label="gini = 0.0\nsamples = 4\nvalue = [4, 0, 0, 0, 0, 0, 0, 0]"] ;
86 -> 88 ;
89 [label="gini = 0.0\nsamples = 8\nvalue = [8, 0, 0, 0, 0, 0, 0, 0]"] ;
67 -> 89 ;
90 [label="Src Port <= 51427.0\ngini = 0.15\nsamples = 49\nvalue = [45, 4, 0, 0, 0, 0, 0, 0]"] ;
66 -> 90 ;
91 [label="gini = 0.0\nsamples = 4\nvalue = [0, 4, 0, 0, 0, 0, 0, 0]"] ;
90 -> 91 ;
92 [label="gini = 0.0\nsamples = 45\nvalue = [45, 0, 0, 0, 0, 0, 0, 0]"] ;
90 -> 92 ;
93 [label="hour <= 1.5\ngini = 0.263\nsamples = 558\nvalue = [87, 0, 0, 0, 0, 0, 0, 471]"] ;
3 -> 93 ;
94 [label="gini = 0.0\nsamples = 87\nvalue = [87, 0, 0, 0, 0, 0, 0, 0]"] ;
93 -> 94 ;
95 [label="gini = 0.0\nsamples = 471\nvalue = [0, 0, 0, 0, 0, 0, 0, 471]"] ;
93 -> 95 ;
96 [label="col_58 <= 0.5\ngini = 0.622\nsamples = 2574\nvalue = [158, 37, 22, 347, 1507, 141, 136, 226]"] ;
2 -> 96 ;
97 [label="Idle Max <= 1448130029551616.0\ngini = 0.808\nsamples = 556\nvalue = [79, 37, 21, 0, 31, 141, 128, 119]"] ;
96 -> 97 ;
98 [label="Idle Max <= 1437459988611072.0\ngini = 0.701\nsamples = 327\nvalue = [18, 13, 21, 0, 20, 8, 128, 119]"] ;
97 -> 98 ;
99 [label="hour <= 11.5\ngini = 0.705\nsamples = 242\nvalue = [18, 13, 21, 0, 20, 8, 44, 118]"] ;
98 -> 99 ;
100 [label="Flow Duration <= -0.063\ngini = 0.574\nsamples = 194\nvalue = [3, 3, 15, 0, 5, 8, 42, 118]"] ;
99 -> 100 ;
101 [label="col_24 <= 0.5\ngini = 0.642\nsamples = 85\nvalue = [3, 3, 1, 0, 0, 8, 40, 30]"] ;
100 -> 101 ;
102 [label="Flow IAT Mean <= -0.345\ngini = 0.484\nsamples = 68\nvalue = [0, 0, 0, 0, 0, 0, 40, 28]"] ;
101 -> 102 ;
103 [label="Bwd Packets/s <= -0.212\ngini = 0.498\nsamples = 53\nvalue = [0, 0, 0, 0, 0, 0, 25, 28]"] ;
102 -> 103 ;
104 [label="Total Length of Fwd Packet <= -0.035\ngini = 0.386\nsamples = 23\nvalue = [0, 0, 0, 0, 0, 0, 6, 17]"] ;
103 -> 104 ;
105 [label="col_91 <= 0.5\ngini = 0.133\nsamples = 14\nvalue = [0, 0, 0, 0, 0, 0, 1, 13]"] ;
104 -> 105 ;
106 [label="gini = 0.0\nsamples = 12\nvalue = [0, 0, 0, 0, 0, 0, 0, 12]"] ;
105 -> 106 ;
107 [label="Bwd Packets/s <= -0.212\ngini = 0.5\nsamples = 2\nvalue = [0, 0, 0, 0, 0, 0, 1, 1]"] ;
105 -> 107 ;
108 [label="gini = 0.0\nsamples = 1\nvalue = [0, 0, 0, 0, 0, 0, 1, 0]"] ;
107 -> 108 ;
109 [label="gini = 0.0\nsamples = 1\nvalue = [0, 0, 0, 0, 0, 0, 0, 1]"] ;
107 -> 109 ;
110 [label="Fwd Segment Size Avg <= -0.107\ngini = 0.494\nsamples = 9\nvalue = [0, 0, 0, 0, 0, 0, 5, 4]"] ;
104 -> 110 ;
111 [label="Packet Length Std <= 0.419\ngini = 0.32\nsamples = 5\nvalue = [0, 0, 0, 0, 0, 0, 4, 1]"] ;
110 -> 111 ;
112 [label="gini = 0.0\nsamples = 4\nvalue = [0, 0, 0, 0, 0, 0, 4, 0]"] ;
111 -> 112 ;
113 [label="gini = 0.0\nsamples = 1\nvalue = [0, 0, 0, 0, 0, 0, 0, 1]"] ;
111 -> 113 ;
114 [label="Src Port <= 49886.0\ngini = 0.375\nsamples = 4\nvalue = [0, 0, 0, 0, 0, 0, 1, 3]"] ;
110 -> 114 ;
115 [label="gini = 0.0\nsamples = 3\nvalue = [0, 0, 0, 0, 0, 0, 0, 3]"] ;
114 -> 115 ;
116 [label="gini = 0.0\nsamples = 1\nvalue = [0, 0, 0, 0, 0, 0, 1, 0]"] ;
114 -> 116 ;
117 [label="Flow IAT Min <= -0.16\ngini = 0.464\nsamples = 30\nvalue = [0, 0, 0, 0, 0, 0, 19, 11]"] ;
103 -> 117 ;
118 [label="gini = 0.0\nsamples = 5\nvalue = [0, 0, 0, 0, 0, 0, 0, 5]"] ;
117 -> 118 ;
119 [label="Packet Length Std <= 0.419\ngini = 0.365\nsamples = 25\nvalue = [0, 0, 0, 0, 0, 0, 19, 6]"] ;
117 -> 119 ;
120 [label="Flow Duration <= -0.546\ngini = 0.18\nsamples = 20\nvalue = [0, 0, 0, 0, 0, 0, 18, 2]"] ;
119 -> 120 ;
121 [label="Src Port <= 48212.5\ngini = 0.105\nsamples = 18\nvalue = [0, 0, 0, 0, 0, 0, 17, 1]"] ;
120 -> 121 ;
122 [label="gini = 0.0\nsamples = 13\nvalue = [0, 0, 0, 0, 0, 0, 13, 0]"] ;
121 -> 122 ;
123 [label="Src Port <= 48934.5\ngini = 0.32\nsamples = 5\nvalue = [0, 0, 0, 0, 0, 0, 4, 1]"] ;
121 -> 123 ;
124 [label="gini = 0.0\nsamples = 1\nvalue = [0, 0, 0, 0, 0, 0, 0, 1]"] ;
123 -> 124 ;
125 [label="gini = 0.0\nsamples = 4\nvalue = [0, 0, 0, 0, 0, 0, 4, 0]"] ;
123 -> 125 ;
126 [label="Fwd Packets/s <= -0.177\ngini = 0.5\nsamples = 2\nvalue = [0, 0, 0, 0, 0, 0, 1, 1]"] ;
120 -> 126 ;
127 [label="gini = 0.0\nsamples = 1\nvalue = [0, 0, 0, 0, 0, 0, 1, 0]"] ;
126 -> 127 ;
128 [label="gini = 0.0\nsamples = 1\nvalue = [0, 0, 0, 0, 0, 0, 0, 1]"] ;
126 -> 128 ;
129 [label="Src Port <= 29117.0\ngini = 0.32\nsamples = 5\nvalue = [0, 0, 0, 0, 0, 0, 1, 4]"] ;
119 -> 129 ;
130 [label="gini = 0.0\nsamples = 4\nvalue = [0, 0, 0, 0, 0, 0, 0, 4]"] ;
129 -> 130 ;
131 [label="gini = 0.0\nsamples = 1\nvalue = [0, 0, 0, 0, 0, 0, 1, 0]"] ;
129 -> 131 ;
132 [label="gini = 0.0\nsamples = 15\nvalue = [0, 0, 0, 0, 0, 0, 15, 0]"] ;
102 -> 132 ;
133 [label="hour <= 6.5\ngini = 0.699\nsamples = 17\nvalue = [3, 3, 1, 0, 0, 8, 0, 2]"] ;
101 -> 133 ;
134 [label="gini = 0.0\nsamples = 7\nvalue = [0, 0, 0, 0, 0, 7, 0, 0]"] ;
133 -> 134 ;
135 [label="hour <= 8.5\ngini = 0.76\nsamples = 10\nvalue = [3, 3, 1, 0, 0, 1, 0, 2]"] ;
133 -> 135 ;
136 [label="gini = 0.0\nsamples = 3\nvalue = [0, 3, 0, 0, 0, 0, 0, 0]"] ;
135 -> 136 ;
137 [label="Dst Port <= 4722.0\ngini = 0.694\nsamples = 7\nvalue = [3, 0, 1, 0, 0, 1, 0, 2]"] ;
135 -> 137 ;
138 [label="gini = 0.0\nsamples = 3\nvalue = [3, 0, 0, 0, 0, 0, 0, 0]"] ;
137 -> 138 ;
139 [label="Flow Duration <= -0.547\ngini = 0.625\nsamples = 4\nvalue = [0, 0, 1, 0, 0, 1, 0, 2]"] ;
137 -> 139 ;
140 [label="gini = 0.0\nsamples = 2\nvalue = [0, 0, 0, 0, 0, 0, 0, 2]"] ;
139 -> 140 ;
141 [label="Fwd Packet Length Std <= 0.759\ngini = 0.5\nsamples = 2\nvalue = [0, 0, 1, 0, 0, 1, 0, 0]"] ;
139 -> 141 ;
142 [label="gini = 0.0\nsamples = 1\nvalue = [0, 0, 0, 0, 0, 1, 0, 0]"] ;
141 -> 142 ;
143 [label="gini = 0.0\nsamples = 1\nvalue = [0, 0, 1, 0, 0, 0, 0, 0]"] ;
141 -> 143 ;
144 [label="Dst Port <= 43891.0\ngini = 0.329\nsamples = 109\nvalue = [0, 0, 14, 0, 5, 0, 2, 88]"] ;
100 -> 144 ;
145 [label="hour <= 6.5\ngini = 0.19\nsamples = 98\nvalue = [0, 0, 3, 0, 5, 0, 2, 88]"] ;
144 -> 145 ;
146 [label="gini = 0.0\nsamples = 5\nvalue = [0, 0, 0, 0, 5, 0, 0, 0]"] ;
145 -> 146 ;
147 [label="Src Port <= 44771.0\ngini = 0.103\nsamples = 93\nvalue = [0, 0, 3, 0, 0, 0, 2, 88]"] ;
145 -> 147 ;
148 [label="Bwd Packet Length Max <= 15.862\ngini = 0.046\nsamples = 85\nvalue = [0, 0, 0, 0, 0, 0, 2, 83]"] ;
147 -> 148 ;
149 [label="Flow IAT Min <= -0.155\ngini = 0.024\nsamples = 84\nvalue = [0, 0, 0, 0, 0, 0, 1, 83]"] ;
148 -> 149 ;
150 [label="gini = 0.0\nsamples = 78\nvalue = [0, 0, 0, 0, 0, 0, 0, 78]"] ;
149 -> 150 ;
151 [label="Idle Mean <= 1428995010723840.0\ngini = 0.278\nsamples = 6\nvalue = [0, 0, 0, 0, 0, 0, 1, 5]"] ;
149 -> 151 ;
152 [label="gini = 0.0\nsamples = 5\nvalue = [0, 0, 0, 0, 0, 0, 0, 5]"] ;
151 -> 152 ;
153 [label="gini = 0.0\nsamples = 1\nvalue = [0, 0, 0, 0, 0, 0, 1, 0]"] ;
151 -> 153 ;
154 [label="gini = 0.0\nsamples = 1\nvalue = [0, 0, 0, 0, 0, 0, 1, 0]"] ;
148 -> 154 ;
155 [label="Bwd IAT Mean <= 0.984\ngini = 0.469\nsamples = 8\nvalue = [0, 0, 3, 0, 0, 0, 0, 5]"] ;
147 -> 155 ;
156 [label="gini = 0.0\nsamples = 3\nvalue = [0, 0, 3, 0, 0, 0, 0, 0]"] ;
155 -> 156 ;
157 [label="gini = 0.0\nsamples = 5\nvalue = [0, 0, 0, 0, 0, 0, 0, 5]"] ;
155 -> 157 ;
158 [label="gini = 0.0\nsamples = 11\nvalue = [0, 0, 11, 0, 0, 0, 0, 0]"] ;
144 -> 158 ;
159 [label="Fwd Segment Size Avg <= 3.179\ngini = 0.744\nsamples = 48\nvalue = [15, 10, 6, 0, 15, 0, 2, 0]"] ;
99 -> 159 ;
160 [label="hour <= 12.5\ngini = 0.665\nsamples = 33\nvalue = [15, 10, 6, 0, 0, 0, 2, 0]"] ;
159 -> 160 ;
161 [label="Flow Packets/s <= -0.091\ngini = 0.208\nsamples = 17\nvalue = [15, 0, 0, 0, 0, 0, 2, 0]"] ;
160 -> 161 ;
162 [label="gini = 0.0\nsamples = 15\nvalue = [15, 0, 0, 0, 0, 0, 0, 0]"] ;
161 -> 162 ;
163 [label="gini = 0.0\nsamples = 2\nvalue = [0, 0, 0, 0, 0, 0, 2, 0]"] ;
161 -> 163 ;
164 [label="Dst Port <= 21709.5\ngini = 0.469\nsamples = 16\nvalue = [0, 10, 6, 0, 0, 0, 0, 0]"] ;
160 -> 164 ;
165 [label="Flow IAT Max <= -0.503\ngini = 0.355\nsamples = 13\nvalue = [0, 10, 3, 0, 0, 0, 0, 0]"] ;
164 -> 165 ;
166 [label="gini = 0.0\nsamples = 1\nvalue = [0, 0, 1, 0, 0, 0, 0, 0]"] ;
165 -> 166 ;
167 [label="Flow IAT Min <= 0.175\ngini = 0.278\nsamples = 12\nvalue = [0, 10, 2, 0, 0, 0, 0, 0]"] ;
165 -> 167 ;
168 [label="Bwd IAT Std <= -0.26\ngini = 0.165\nsamples = 11\nvalue = [0, 10, 1, 0, 0, 0, 0, 0]"] ;
167 -> 168 ;
169 [label="gini = 0.0\nsamples = 10\nvalue = [0, 10, 0, 0, 0, 0, 0, 0]"] ;
168 -> 169 ;
170 [label="gini = 0.0\nsamples = 1\nvalue = [0, 0, 1, 0, 0, 0, 0, 0]"] ;
168 -> 170 ;
171 [label="gini = 0.0\nsamples = 1\nvalue = [0, 0, 1, 0, 0, 0, 0, 0]"] ;
167 -> 171 ;
172 [label="gini = 0.0\nsamples = 3\nvalue = [0, 0, 3, 0, 0, 0, 0, 0]"] ;
164 -> 172 ;
173 [label="gini = 0.0\nsamples = 15\nvalue = [0, 0, 0, 0, 15, 0, 0, 0]"] ;
159 -> 173 ;
174 [label="ACK Flag Count <= 3.102\ngini = 0.023\nsamples = 85\nvalue = [0, 0, 0, 0, 0, 0, 84, 1]"] ;
98 -> 174 ;
175 [label="gini = 0.0\nsamples = 84\nvalue = [0, 0, 0, 0, 0, 0, 84, 0]"] ;
174 -> 175 ;
176 [label="gini = 0.0\nsamples = 1\nvalue = [0, 0, 0, 0, 0, 0, 0, 1]"] ;
174 -> 176 ;
177 [label="Flow IAT Std <= -0.408\ngini = 0.578\nsamples = 229\nvalue = [61, 24, 0, 0, 11, 133, 0, 0]"] ;
97 -> 177 ;
178 [label="Fwd Packet Length Std <= 3.53\ngini = 0.093\nsamples = 123\nvalue = [0, 0, 0, 0, 6, 117, 0, 0]"] ;
177 -> 178 ;
179 [label="gini = 0.0\nsamples = 117\nvalue = [0, 0, 0, 0, 0, 117, 0, 0]"] ;
178 -> 179 ;
180 [label="gini = 0.0\nsamples = 6\nvalue = [0, 0, 0, 0, 6, 0, 0, 0]"] ;
178 -> 180 ;
181 [label="hour <= 10.0\ngini = 0.593\nsamples = 106\nvalue = [61, 24, 0, 0, 5, 16, 0, 0]"] ;
177 -> 181 ;
182 [label="hour <= 7.0\ngini = 0.444\nsamples = 36\nvalue = [0, 24, 0, 0, 0, 12, 0, 0]"] ;
181 -> 182 ;
183 [label="gini = 0.0\nsamples = 12\nvalue = [0, 0, 0, 0, 0, 12, 0, 0]"] ;
182 -> 183 ;
184 [label="gini = 0.0\nsamples = 24\nvalue = [0, 24, 0, 0, 0, 0, 0, 0]"] ;
182 -> 184 ;
185 [label="Idle Max <= 1456375024582656.0\ngini = 0.232\nsamples = 70\nvalue = [61, 0, 0, 0, 5, 4, 0, 0]"] ;
181 -> 185 ;
186 [label="FWD Init Win Bytes <= 2.282\ngini = 0.116\nsamples = 65\nvalue = [61, 0, 0, 0, 0, 4, 0, 0]"] ;
185 -> 186 ;
187 [label="gini = 0.0\nsamples = 3\nvalue = [0, 0, 0, 0, 0, 3, 0, 0]"] ;
186 -> 187 ;
188 [label="Flow IAT Min <= -0.16\ngini = 0.032\nsamples = 62\nvalue = [61, 0, 0, 0, 0, 1, 0, 0]"] ;
186 -> 188 ;
189 [label="gini = 0.0\nsamples = 59\nvalue = [59, 0, 0, 0, 0, 0, 0, 0]"] ;
188 -> 189 ;
190 [label="Fwd IAT Total <= -0.512\ngini = 0.444\nsamples = 3\nvalue = [2, 0, 0, 0, 0, 1, 0, 0]"] ;
188 -> 190 ;
191 [label="gini = 0.0\nsamples = 2\nvalue = [2, 0, 0, 0, 0, 0, 0, 0]"] ;
190 -> 191 ;
192 [label="gini = 0.0\nsamples = 1\nvalue = [0, 0, 0, 0, 0, 1, 0, 0]"] ;
190 -> 192 ;
193 [label="gini = 0.0\nsamples = 5\nvalue = [0, 0, 0, 0, 5, 0, 0, 0]"] ;
185 -> 193 ;
194 [label="hour <= 11.5\ngini = 0.431\nsamples = 2018\nvalue = [79, 0, 1, 347, 1476, 0, 8, 107]"] ;
96 -> 194 ;
195 [label="Idle Max <= 1433644983910400.0\ngini = 0.382\nsamples = 1934\nvalue = [0, 0, 1, 347, 1476, 0, 3, 107]"] ;
194 -> 195 ;
196 [label="Flow Duration <= -0.542\ngini = 0.328\nsamples = 1831\nvalue = [0, 0, 0, 251, 1476, 0, 0, 104]"] ;
195 -> 196 ;
197 [label="hour <= 10.5\ngini = 0.519\nsamples = 545\nvalue = [0, 0, 0, 247, 286, 0, 0, 12]"] ;
196 -> 197 ;
198 [label="col_5 <= 0.5\ngini = 0.135\nsamples = 151\nvalue = [0, 0, 0, 0, 140, 0, 0, 11]"] ;
197 -> 198 ;
199 [label="col_26 <= 0.5\ngini = 0.028\nsamples = 142\nvalue = [0, 0, 0, 0, 140, 0, 0, 2]"] ;
198 -> 199 ;
200 [label="col_55 <= 0.5\ngini = 0.014\nsamples = 141\nvalue = [0, 0, 0, 0, 140, 0, 0, 1]"] ;
199 -> 200 ;
201 [label="gini = 0.0\nsamples = 138\nvalue = [0, 0, 0, 0, 138, 0, 0, 0]"] ;
200 -> 201 ;
202 [label="Fwd Packets/s <= 0.588\ngini = 0.444\nsamples = 3\nvalue = [0, 0, 0, 0, 2, 0, 0, 1]"] ;
200 -> 202 ;
203 [label="gini = 0.0\nsamples = 1\nvalue = [0, 0, 0, 0, 0, 0, 0, 1]"] ;
202 -> 203 ;
204 [label="gini = 0.0\nsamples = 2\nvalue = [0, 0, 0, 0, 2, 0, 0, 0]"] ;
202 -> 204 ;
205 [label="gini = 0.0\nsamples = 1\nvalue = [0, 0, 0, 0, 0, 0, 0, 1]"] ;
199 -> 205 ;
206 [label="gini = 0.0\nsamples = 9\nvalue = [0, 0, 0, 0, 0, 0, 0, 9]"] ;
198 -> 206 ;
207 [label="Average Packet Size <= 0.434\ngini = 0.47\nsamples = 394\nvalue = [0, 0, 0, 247, 146, 0, 0, 1]"] ;
197 -> 207 ;
208 [label="Src Port <= 38262.5\ngini = 0.427\nsamples = 356\nvalue = [0, 0, 0, 247, 108, 0, 0, 1]"] ;
207 -> 208 ;
209 [label="Bwd Packets/s <= -0.214\ngini = 0.305\nsamples = 247\nvalue = [0, 0, 0, 201, 45, 0, 0, 1]"] ;
208 -> 209 ;
210 [label="Dst Port <= 38394.0\ngini = 0.114\nsamples = 165\nvalue = [0, 0, 0, 155, 10, 0, 0, 0]"] ;
209 -> 210 ;
211 [label="col_58 <= 1.5\ngini = 0.026\nsamples = 149\nvalue = [0, 0, 0, 147, 2, 0, 0, 0]"] ;
210 -> 211 ;
212 [label="Bwd Packets/s <= -0.214\ngini = 0.013\nsamples = 148\nvalue = [0, 0, 0, 147, 1, 0, 0, 0]"] ;
211 -> 212 ;
213 [label="gini = 0.0\nsamples = 143\nvalue = [0, 0, 0, 143, 0, 0, 0, 0]"] ;
212 -> 213 ;
214 [label="Packet Length Min <= 0.924\ngini = 0.32\nsamples = 5\nvalue = [0, 0, 0, 4, 1, 0, 0, 0]"] ;
212 -> 214 ;
215 [label="gini = 0.0\nsamples = 1\nvalue = [0, 0, 0, 0, 1, 0, 0, 0]"] ;
214 -> 215 ;
216 [label="gini = 0.0\nsamples = 4\nvalue = [0, 0, 0, 4, 0, 0, 0, 0]"] ;
214 -> 216 ;
217 [label="gini = 0.0\nsamples = 1\nvalue = [0, 0, 0, 0, 1, 0, 0, 0]"] ;
211 -> 217 ;
218 [label="Src Port <= 3783.5\ngini = 0.5\nsamples = 16\nvalue = [0, 0, 0, 8, 8, 0, 0, 0]"] ;
210 -> 218 ;
219 [label="src_ip_country <= 86.5\ngini = 0.32\nsamples = 10\nvalue = [0, 0, 0, 8, 2, 0, 0, 0]"] ;
218 -> 219 ;
220 [label="gini = 0.0\nsamples = 2\nvalue = [0, 0, 0, 0, 2, 0, 0, 0]"] ;
219 -> 220 ;
221 [label="gini = 0.0\nsamples = 8\nvalue = [0, 0, 0, 8, 0, 0, 0, 0]"] ;
219 -> 221 ;
222 [label="gini = 0.0\nsamples = 6\nvalue = [0, 0, 0, 0, 6, 0, 0, 0]"] ;
218 -> 222 ;
223 [label="Total Length of Bwd Packet <= -0.029\ngini = 0.503\nsamples = 82\nvalue = [0, 0, 0, 46, 35, 0, 0, 1]"] ;
209 -> 223 ;
224 [label="Src Port <= 261.5\ngini = 0.329\nsamples = 40\nvalue = [0, 0, 0, 7, 32, 0, 0, 1]"] ;
223 -> 224 ;
225 [label="Fwd Packets/s <= 0.833\ngini = 0.32\nsamples = 5\nvalue = [0, 0, 0, 4, 1, 0, 0, 0]"] ;
224 -> 225 ;
226 [label="gini = 0.0\nsamples = 4\nvalue = [0, 0, 0, 4, 0, 0, 0, 0]"] ;
225 -> 226 ;
227 [label="gini = 0.0\nsamples = 1\nvalue = [0, 0, 0, 0, 1, 0, 0, 0]"] ;
225 -> 227 ;
228 [label="FWD Init Win Bytes <= 3.051\ngini = 0.207\nsamples = 35\nvalue = [0, 0, 0, 3, 31, 0, 0, 1]"] ;
224 -> 228 ;
229 [label="Fwd Packet Length Mean <= -0.103\ngini = 0.161\nsamples = 34\nvalue = [0, 0, 0, 3, 31, 0, 0, 0]"] ;
228 -> 229 ;
230 [label="col_55 <= 0.5\ngini = 0.114\nsamples = 33\nvalue = [0, 0, 0, 2, 31, 0, 0, 0]"] ;
229 -> 230 ;
231 [label="Packet Length Min <= 0.84\ngini = 0.061\nsamples = 32\nvalue = [0, 0, 0, 1, 31, 0, 0, 0]"] ;
230 -> 231 ;
232 [label="gini = 0.0\nsamples = 25\nvalue = [0, 0, 0, 0, 25, 0, 0, 0]"] ;
231 -> 232 ;
233 [label="Flow IAT Min <= -0.138\ngini = 0.245\nsamples = 7\nvalue = [0, 0, 0, 1, 6, 0, 0, 0]"] ;
231 -> 233 ;
234 [label="gini = 0.0\nsamples = 1\nvalue = [0, 0, 0, 1, 0, 0, 0, 0]"] ;
233 -> 234 ;
235 [label="gini = 0.0\nsamples = 6\nvalue = [0, 0, 0, 0, 6, 0, 0, 0]"] ;
233 -> 235 ;
236 [label="gini = 0.0\nsamples = 1\nvalue = [0, 0, 0, 1, 0, 0, 0, 0]"] ;
230 -> 236 ;
237 [label="gini = 0.0\nsamples = 1\nvalue = [0, 0, 0, 1, 0, 0, 0, 0]"] ;
229 -> 237 ;
238 [label="gini = 0.0\nsamples = 1\nvalue = [0, 0, 0, 0, 0, 0, 0, 1]"] ;
228 -> 238 ;
239 [label="Subflow Fwd Bytes <= -0.179\ngini = 0.133\nsamples = 42\nvalue = [0, 0, 0, 39, 3, 0, 0, 0]"] ;
223 -> 239 ;
240 [label="Packet Length Mean <= 0.03\ngini = 0.054\nsamples = 36\nvalue = [0, 0, 0, 35, 1, 0, 0, 0]"] ;
239 -> 240 ;
241 [label="Subflow Bwd Bytes <= 0.398\ngini = 0.278\nsamples = 6\nvalue = [0, 0, 0, 5, 1, 0, 0, 0]"] ;
240 -> 241 ;
242 [label="gini = 0.0\nsamples = 5\nvalue = [0, 0, 0, 5, 0, 0, 0, 0]"] ;
241 -> 242 ;
243 [label="gini = 0.0\nsamples = 1\nvalue = [0, 0, 0, 0, 1, 0, 0, 0]"] ;
241 -> 243 ;
244 [label="gini = 0.0\nsamples = 30\nvalue = [0, 0, 0, 30, 0, 0, 0, 0]"] ;
240 -> 244 ;
245 [label="Flow Bytes/s <= -0.066\ngini = 0.444\nsamples = 6\nvalue = [0, 0, 0, 4, 2, 0, 0, 0]"] ;
239 -> 245 ;
246 [label="gini = 0.0\nsamples = 2\nvalue = [0, 0, 0, 0, 2, 0, 0, 0]"] ;
245 -> 246 ;
247 [label="gini = 0.0\nsamples = 4\nvalue = [0, 0, 0, 4, 0, 0, 0, 0]"] ;
245 -> 247 ;
248 [label="Fwd Segment Size Avg <= -0.164\ngini = 0.488\nsamples = 109\nvalue = [0, 0, 0, 46, 63, 0, 0, 0]"] ;
208 -> 248 ;
249 [label="Flow Bytes/s <= 0.579\ngini = 0.216\nsamples = 65\nvalue = [0, 0, 0, 8, 57, 0, 0, 0]"] ;
248 -> 249 ;
250 [label="col_75 <= 0.5\ngini = 0.065\nsamples = 59\nvalue = [0, 0, 0, 2, 57, 0, 0, 0]"] ;
249 -> 250 ;
251 [label="gini = 0.0\nsamples = 57\nvalue = [0, 0, 0, 0, 57, 0, 0, 0]"] ;
250 -> 251 ;
252 [label="gini = 0.0\nsamples = 2\nvalue = [0, 0, 0, 2, 0, 0, 0, 0]"] ;
250 -> 252 ;
253 [label="gini = 0.0\nsamples = 6\nvalue = [0, 0, 0, 6, 0, 0, 0, 0]"] ;
249 -> 253 ;
254 [label="Fwd Packet Length Min <= 0.699\ngini = 0.236\nsamples = 44\nvalue = [0, 0, 0, 38, 6, 0, 0, 0]"] ;
248 -> 254 ;
255 [label="Packet Length Mean <= -0.146\ngini = 0.114\nsamples = 33\nvalue = [0, 0, 0, 31, 2, 0, 0, 0]"] ;
254 -> 255 ;
256 [label="gini = 0.0\nsamples = 1\nvalue = [0, 0, 0, 0, 1, 0, 0, 0]"] ;
255 -> 256 ;
257 [label="Packet Length Std <= -0.017\ngini = 0.061\nsamples = 32\nvalue = [0, 0, 0, 31, 1, 0, 0, 0]"] ;
255 -> 257 ;
258 [label="Packet Length Min <= 0.903\ngini = 0.32\nsamples = 5\nvalue = [0, 0, 0, 4, 1, 0, 0, 0]"] ;
257 -> 258 ;
259 [label="gini = 0.0\nsamples = 3\nvalue = [0, 0, 0, 3, 0, 0, 0, 0]"] ;
258 -> 259 ;
260 [label="Flow IAT Max <= -0.496\ngini = 0.5\nsamples = 2\nvalue = [0, 0, 0, 1, 1, 0, 0, 0]"] ;
258 -> 260 ;
261 [label="gini = 0.0\nsamples = 1\nvalue = [0, 0, 0, 1, 0, 0, 0, 0]"] ;
260 -> 261 ;
262 [label="gini = 0.0\nsamples = 1\nvalue = [0, 0, 0, 0, 1, 0, 0, 0]"] ;
260 -> 262 ;
263 [label="gini = 0.0\nsamples = 27\nvalue = [0, 0, 0, 27, 0, 0, 0, 0]"] ;
257 -> 263 ;
264 [label="Fwd Packet Length Max <= -0.256\ngini = 0.463\nsamples = 11\nvalue = [0, 0, 0, 7, 4, 0, 0, 0]"] ;
254 -> 264 ;
265 [label="gini = 0.0\nsamples = 3\nvalue = [0, 0, 0, 0, 3, 0, 0, 0]"] ;
264 -> 265 ;
266 [label="Bwd Packets/s <= -0.214\ngini = 0.219\nsamples = 8\nvalue = [0, 0, 0, 7, 1, 0, 0, 0]"] ;
264 -> 266 ;
267 [label="gini = 0.0\nsamples = 1\nvalue = [0, 0, 0, 0, 1, 0, 0, 0]"] ;
266 -> 267 ;
268 [label="gini = 0.0\nsamples = 7\nvalue = [0, 0, 0, 7, 0, 0, 0, 0]"] ;
266 -> 268 ;
269 [label="gini = 0.0\nsamples = 38\nvalue = [0, 0, 0, 0, 38, 0, 0, 0]"] ;
207 -> 269 ;
270 [label="hour <= 6.5\ngini = 0.139\nsamples = 1286\nvalue = [0, 0, 0, 4, 1190, 0, 0, 92]"] ;
196 -> 270 ;
271 [label="Idle Max <= 1432405013430272.0\ngini = 0.491\nsamples = 211\nvalue = [0, 0, 0, 0, 120, 0, 0, 91]"] ;
270 -> 271 ;
272 [label="Bwd Header Length <= -0.044\ngini = 0.236\nsamples = 139\nvalue = [0, 0, 0, 0, 120, 0, 0, 19]"] ;
271 -> 272 ;
273 [label="col_5 <= 0.5\ngini = 0.461\nsamples = 25\nvalue = [0, 0, 0, 0, 9, 0, 0, 16]"] ;
272 -> 273 ;
274 [label="Flow Duration <= -0.54\ngini = 0.498\nsamples = 17\nvalue = [0, 0, 0, 0, 9, 0, 0, 8]"] ;
273 -> 274 ;
275 [label="gini = 0.0\nsamples = 5\nvalue = [0, 0, 0, 0, 0, 0, 0, 5]"] ;
274 -> 275 ;
276 [label="Flow Bytes/s <= -0.068\ngini = 0.375\nsamples = 12\nvalue = [0, 0, 0, 0, 9, 0, 0, 3]"] ;
274 -> 276 ;
277 [label="Bwd Packet Length Min <= -0.092\ngini = 0.18\nsamples = 10\nvalue = [0, 0, 0, 0, 9, 0, 0, 1]"] ;
276 -> 277 ;
278 [label="FWD Init Win Bytes <= -0.473\ngini = 0.444\nsamples = 3\nvalue = [0, 0, 0, 0, 2, 0, 0, 1]"] ;
277 -> 278 ;
279 [label="gini = 0.0\nsamples = 1\nvalue = [0, 0, 0, 0, 0, 0, 0, 1]"] ;
278 -> 279 ;
280 [label="gini = 0.0\nsamples = 2\nvalue = [0, 0, 0, 0, 2, 0, 0, 0]"] ;
278 -> 280 ;
281 [label="gini = 0.0\nsamples = 7\nvalue = [0, 0, 0, 0, 7, 0, 0, 0]"] ;
277 -> 281 ;
282 [label="gini = 0.0\nsamples = 2\nvalue = [0, 0, 0, 0, 0, 0, 0, 2]"] ;
276 -> 282 ;
283 [label="gini = 0.0\nsamples = 8\nvalue = [0, 0, 0, 0, 0, 0, 0, 8]"] ;
273 -> 283 ;
284 [label="Idle Mean <= 1432405013430272.0\ngini = 0.051\nsamples = 114\nvalue = [0, 0, 0, 0, 111, 0, 0, 3]"] ;
272 -> 284 ;
285 [label="Flow IAT Std <= -0.415\ngini = 0.035\nsamples = 113\nvalue = [0, 0, 0, 0, 111, 0, 0, 2]"] ;
284 -> 285 ;
286 [label="col_55 <= 0.5\ngini = 0.298\nsamples = 11\nvalue = [0, 0, 0, 0, 9, 0, 0, 2]"] ;
285 -> 286 ;
287 [label="gini = 0.0\nsamples = 5\nvalue = [0, 0, 0, 0, 5, 0, 0, 0]"] ;
286 -> 287 ;
288 [label="Flow IAT Mean <= -0.334\ngini = 0.444\nsamples = 6\nvalue = [0, 0, 0, 0, 4, 0, 0, 2]"] ;
286 -> 288 ;
289 [label="gini = 0.0\nsamples = 2\nvalue = [0, 0, 0, 0, 2, 0, 0, 0]"] ;
288 -> 289 ;
290 [label="Flow IAT Max <= -0.491\ngini = 0.5\nsamples = 4\nvalue = [0, 0, 0, 0, 2, 0, 0, 2]"] ;
288 -> 290 ;
291 [label="gini = 0.0\nsamples = 1\nvalue = [0, 0, 0, 0, 0, 0, 0, 1]"] ;
290 -> 291 ;
292 [label="Flow IAT Min <= -0.119\ngini = 0.444\nsamples = 3\nvalue = [0, 0, 0, 0, 2, 0, 0, 1]"] ;
290 -> 292 ;
293 [label="gini = 0.0\nsamples = 1\nvalue = [0, 0, 0, 0, 1, 0, 0, 0]"] ;
292 -> 293 ;
294 [label="Flow IAT Min <= -0.117\ngini = 0.5\nsamples = 2\nvalue = [0, 0, 0, 0, 1, 0, 0, 1]"] ;
292 -> 294 ;
295 [label="gini = 0.0\nsamples = 1\nvalue = [0, 0, 0, 0, 0, 0, 0, 1]"] ;
294 -> 295 ;
296 [label="gini = 0.0\nsamples = 1\nvalue = [0, 0, 0, 0, 1, 0, 0, 0]"] ;
294 -> 296 ;
297 [label="gini = 0.0\nsamples = 102\nvalue = [0, 0, 0, 0, 102, 0, 0, 0]"] ;
285 -> 297 ;
298 [label="gini = 0.0\nsamples = 1\nvalue = [0, 0, 0, 0, 0, 0, 0, 1]"] ;
284 -> 298 ;
299 [label="gini = 0.0\nsamples = 72\nvalue = [0, 0, 0, 0, 0, 0, 0, 72]"] ;
271 -> 299 ;
300 [label="FWD Init Win Bytes <= 6.083\ngini = 0.009\nsamples = 1075\nvalue = [0, 0, 0, 4, 1070, 0, 0, 1]"] ;
270 -> 300 ;
301 [label="Idle Mean <= 1433644983910400.0\ngini = 0.007\nsamples = 1074\nvalue = [0, 0, 0, 4, 1070, 0, 0, 0]"] ;
300 -> 301 ;
302 [label="col_53 <= 0.5\ngini = 0.006\nsamples = 1073\nvalue = [0, 0, 0, 3, 1070, 0, 0, 0]"] ;
301 -> 302 ;
303 [label="gini = 0.0\nsamples = 1061\nvalue = [0, 0, 0, 0, 1061, 0, 0, 0]"] ;
302 -> 303 ;
304 [label="Bwd Packet Length Min <= -0.042\ngini = 0.375\nsamples = 12\nvalue = [0, 0, 0, 3, 9, 0, 0, 0]"] ;
302 -> 304 ;
305 [label="gini = 0.0\nsamples = 9\nvalue = [0, 0, 0, 0, 9, 0, 0, 0]"] ;
304 -> 305 ;
306 [label="gini = 0.0\nsamples = 3\nvalue = [0, 0, 0, 3, 0, 0, 0, 0]"] ;
304 -> 306 ;
307 [label="gini = 0.0\nsamples = 1\nvalue = [0, 0, 0, 1, 0, 0, 0, 0]"] ;
301 -> 307 ;
308 [label="gini = 0.0\nsamples = 1\nvalue = [0, 0, 0, 0, 0, 0, 0, 1]"] ;
300 -> 308 ;
309 [label="Idle Mean <= 1436894999085056.0\ngini = 0.13\nsamples = 103\nvalue = [0, 0, 1, 96, 0, 0, 3, 3]"] ;
195 -> 309 ;
310 [label="Fwd IAT Std <= -0.359\ngini = 0.02\nsamples = 97\nvalue = [0, 0, 1, 96, 0, 0, 0, 0]"] ;
309 -> 310 ;
311 [label="gini = 0.0\nsamples = 1\nvalue = [0, 0, 1, 0, 0, 0, 0, 0]"] ;
310 -> 311 ;
312 [label="gini = 0.0\nsamples = 96\nvalue = [0, 0, 0, 96, 0, 0, 0, 0]"] ;
310 -> 312 ;
313 [label="Idle Min <= 1437369995624448.0\ngini = 0.5\nsamples = 6\nvalue = [0, 0, 0, 0, 0, 0, 3, 3]"] ;
309 -> 313 ;
314 [label="gini = 0.0\nsamples = 3\nvalue = [0, 0, 0, 0, 0, 0, 0, 3]"] ;
313 -> 314 ;
315 [label="gini = 0.0\nsamples = 3\nvalue = [0, 0, 0, 0, 0, 0, 3, 0]"] ;
313 -> 315 ;
316 [label="col_26 <= 0.5\ngini = 0.112\nsamples = 84\nvalue = [79, 0, 0, 0, 0, 0, 5, 0]"] ;
194 -> 316 ;
317 [label="gini = 0.0\nsamples = 79\nvalue = [79, 0, 0, 0, 0, 0, 0, 0]"] ;
316 -> 317 ;
318 [label="gini = 0.0\nsamples = 5\nvalue = [0, 0, 0, 0, 0, 0, 5, 0]"] ;
316 -> 318 ;
319 [label="hour <= 14.5\ngini = 0.026\nsamples = 2745\nvalue = [36, 0, 2709, 0, 0, 0, 0, 0]"] ;
1 -> 319 ;
320 [label="Flow Duration <= -0.543\ngini = 0.282\nsamples = 212\nvalue = [36, 0, 176, 0, 0, 0, 0, 0]"] ;
319 -> 320 ;
321 [label="gini = 0.0\nsamples = 127\nvalue = [0, 0, 127, 0, 0, 0, 0, 0]"] ;
320 -> 321 ;
322 [label="Flow Bytes/s <= -0.068\ngini = 0.488\nsamples = 85\nvalue = [36, 0, 49, 0, 0, 0, 0, 0]"] ;
320 -> 322 ;
323 [label="gini = 0.0\nsamples = 13\nvalue = [0, 0, 13, 0, 0, 0, 0, 0]"] ;
322 -> 323 ;
324 [label="Src Port <= 51797.5\ngini = 0.5\nsamples = 72\nvalue = [36, 0, 36, 0, 0, 0, 0, 0]"] ;
322 -> 324 ;
325 [label="Fwd IAT Std <= -0.182\ngini = 0.457\nsamples = 48\nvalue = [17, 0, 31, 0, 0, 0, 0, 0]"] ;
324 -> 325 ;
326 [label="Src Port <= 41862.0\ngini = 0.491\nsamples = 30\nvalue = [17, 0, 13, 0, 0, 0, 0, 0]"] ;
325 -> 326 ;
327 [label="Dst Port <= 1304.0\ngini = 0.363\nsamples = 21\nvalue = [16, 0, 5, 0, 0, 0, 0, 0]"] ;
326 -> 327 ;
328 [label="gini = 0.0\nsamples = 2\nvalue = [0, 0, 2, 0, 0, 0, 0, 0]"] ;
327 -> 328 ;
329 [label="Bwd Bulk Rate Avg <= -0.038\ngini = 0.266\nsamples = 19\nvalue = [16, 0, 3, 0, 0, 0, 0, 0]"] ;
327 -> 329 ;
330 [label="Flow IAT Min <= -0.103\ngini = 0.198\nsamples = 18\nvalue = [16, 0, 2, 0, 0, 0, 0, 0]"] ;
329 -> 330 ;
331 [label="Packet Length Std <= -0.51\ngini = 0.111\nsamples = 17\nvalue = [16, 0, 1, 0, 0, 0, 0, 0]"] ;
330 -> 331 ;
332 [label="gini = 0.0\nsamples = 1\nvalue = [0, 0, 1, 0, 0, 0, 0, 0]"] ;
331 -> 332 ;
333 [label="gini = 0.0\nsamples = 16\nvalue = [16, 0, 0, 0, 0, 0, 0, 0]"] ;
331 -> 333 ;
334 [label="gini = 0.0\nsamples = 1\nvalue = [0, 0, 1, 0, 0, 0, 0, 0]"] ;
330 -> 334 ;
335 [label="gini = 0.0\nsamples = 1\nvalue = [0, 0, 1, 0, 0, 0, 0, 0]"] ;
329 -> 335 ;
336 [label="col_18 <= 0.5\ngini = 0.198\nsamples = 9\nvalue = [1, 0, 8, 0, 0, 0, 0, 0]"] ;
326 -> 336 ;
337 [label="gini = 0.0\nsamples = 8\nvalue = [0, 0, 8, 0, 0, 0, 0, 0]"] ;
336 -> 337 ;
338 [label="gini = 0.0\nsamples = 1\nvalue = [1, 0, 0, 0, 0, 0, 0, 0]"] ;
336 -> 338 ;
339 [label="gini = 0.0\nsamples = 18\nvalue = [0, 0, 18, 0, 0, 0, 0, 0]"] ;
325 -> 339 ;
340 [label="Src Port <= 58680.5\ngini = 0.33\nsamples = 24\nvalue = [19, 0, 5, 0, 0, 0, 0, 0]"] ;
324 -> 340 ;
341 [label="Flow Duration <= 2.603\ngini = 0.095\nsamples = 20\nvalue = [19, 0, 1, 0, 0, 0, 0, 0]"] ;
340 -> 341 ;
342 [label="gini = 0.0\nsamples = 19\nvalue = [19, 0, 0, 0, 0, 0, 0, 0]"] ;
341 -> 342 ;
343 [label="gini = 0.0\nsamples = 1\nvalue = [0, 0, 1, 0, 0, 0, 0, 0]"] ;
341 -> 343 ;
344 [label="gini = 0.0\nsamples = 4\nvalue = [0, 0, 4, 0, 0, 0, 0, 0]"] ;
340 -> 344 ;
345 [label="gini = 0.0\nsamples = 2533\nvalue = [0, 0, 2533, 0, 0, 0, 0, 0]"] ;
319 -> 345 ;
346 [label="col_58 <= 0.5\ngini = 0.005\nsamples = 7603\nvalue = [7585, 0, 0, 0, 14, 0, 0, 4]"] ;
0 -> 346 [labeldistance=2.5, labelangle=-45, headlabel="False"] ;
347 [label="gini = 0.0\nsamples = 7584\nvalue = [7584, 0, 0, 0, 0, 0, 0, 0]"] ;
346 -> 347 ;
348 [label="hour <= 5.5\ngini = 0.41\nsamples = 19\nvalue = [1, 0, 0, 0, 14, 0, 0, 4]"] ;
346 -> 348 ;
349 [label="Flow IAT Min <= -0.156\ngini = 0.32\nsamples = 5\nvalue = [1, 0, 0, 0, 0, 0, 0, 4]"] ;
348 -> 349 ;
350 [label="gini = 0.0\nsamples = 4\nvalue = [0, 0, 0, 0, 0, 0, 0, 4]"] ;
349 -> 350 ;
351 [label="gini = 0.0\nsamples = 1\nvalue = [1, 0, 0, 0, 0, 0, 0, 0]"] ;
349 -> 351 ;
352 [label="gini = 0.0\nsamples = 14\nvalue = [0, 0, 0, 0, 14, 0, 0, 0]"] ;
348 -> 352 ;
}